-0.378716379404068
-0.7306816577911377
-0.7175504565238953
-0.2585364878177643
-0.25099149346351624
-0.10759999603033066
-0.35028931498527527
-0.3053336441516876
0.10383351147174835
0.24925921857357025
0.1644228845834732
-0.19723926484584808
-0.3556705117225647
0.08680982142686844
0.20700310170650482
0.3529183566570282
0.005988615565001965
-0.16031397879123688
0.1893739551305771
0.24438893795013428
0.010887556709349155
0.12508930265903473
-0.06727955490350723
-0.14232492446899414
0.39149728417396545
-0.09459377080202103
0.05339585989713669
-0.2866171896457672
-0.6401814818382263
-0.3638966679573059
-0.1442538946866989
-0.24594034254550934
-0.6599634289741516
-0.3281387984752655
-0.14500755071640015
-0.12594886124134064
-0.23554393649101257
-0.7138587832450867
-0.13334229588508606
0.17554864287376404
-0.16595713794231415
-0.15083830058574677
-0.44068241119384766
-0.31740614771842957
0.06309912353754044
-0.08614867180585861
-0.28127261996269226
-0.5148497819900513
-0.11144997179508209
0.13376890122890472
-0.47633519768714905
-0.042081236839294434
-0.07853367179632187
-0.1672273576259613
-0.07636293023824692
0.022884568199515343
-0.12678568065166473
-0.20759908854961395
-0.07678083330392838
-0.027606040239334106
0.34450268745422363
0.030606253072619438
-0.10732116550207138
0.002257599262520671
0.15716439485549927
0.17347048223018646
0.07585853338241577
-0.21429497003555298
0.15569300949573517
0.09974315017461777
0.17313389480113983
0.08458051085472107
0.04358965530991554
0.2108423262834549
0.2352747768163681
0.06954508274793625
0.09582880139350891
-0.10004168748855591
-0.2061382234096527
-0.6450468301773071
-0.26832762360572815
-0.1056516245007515
-0.12922607362270355
-0.0926809161901474
-0.4512988328933716
-0.32607540488243103
-0.258014976978302
0.12684887647628784
0.15178534388542175
-0.23403991758823395
-0.4175489842891693
-0.10102347284555435
0.3250056207180023
0.1317560076713562
-0.691677987575531
-0.2831445038318634
-0.11800486594438553
0.193692147731781
-0.10563284158706665
-0.5493553876876831
-0.158727765083313
-0.0039382572285830975
0.2704412639141083
0.20576326549053192
-0.1776953935623169
-0.09240877628326416
0.04789581522345543
0.15776905417442322
0.2261701077222824
0.14807608723640442
0.20083847641944885
0.04497988149523735
0.03914545476436615
0.31307804584503174
0.07270632684230804
0.13623356819152832
0.06267939507961273
-0.18896405398845673
0.21514593064785004
0.37707605957984924
0.36007529497146606
0.21150539815425873
0.2461661994457245
-0.15823017060756683
0.2709266245365143
0.48831456899642944
-0.37996020913124084
-0.7363024353981018
-0.0013641719706356525
0.14583706855773926
0.3146131634712219
-0.340842604637146
-0.4576307237148285
0.2062530815601349
0.17546504735946655
0.2652699649333954
-0.23040838539600372
-0.09570679068565369
0.10674350708723068
0.005312742665410042
0.08598266541957855
0.08721674233675003
-0.1458384245634079
-0.21343868970870972
-0.16126762330532074
-0.05800394341349602
0.37672707438468933
-0.1523592174053192
0.07378397136926651
0.05327407270669937
-0.11810143291950226
-0.11659958958625793
-0.059441931545734406
-0.040484216064214706
-0.014816664159297943
-0.044047895818948746
0.08638059347867966
-0.0447821281850338
-0.05269550532102585
-0.08043452352285385
-0.1129278913140297
-0.07879191637039185
0.022818192839622498
-0.06540822237730026
-0.0521719865500927
-0.05374862253665924
-0.06135522946715355
0.029008137062191963
-0.021984167397022247
-0.015866413712501526
0.05366520211100578
-0.06519471108913422
0.014367791824042797
-0.09071274846792221
-0.03883548080921173
0.025639036670327187
-0.04950211942195892
-0.038926977664232254
0.00691952183842659
-0.03339992091059685
-0.030499886721372604
-0.08381212502717972
0.04234646260738373
0.01557072438299656
-0.07963332533836365
-0.0009159555193036795
0.035225965082645416
0.04844044893980026
-0.021427007392048836
0.0272724237293005
-0.045470260083675385
-0.062247827649116516
0.03103202022612095
0.014040719717741013
-0.07823663204908371
0.048877205699682236
0.05844475328922272
-0.03739410266280174
-0.021102234721183777
-0.011409884318709373
0.011662810109555721
-0.12694421410560608
-0.026726651936769485
-0.07361868768930435
-0.12115151435136795
-0.12018334120512009
-0.10571005195379257
-0.11950341612100601
-0.026717862114310265
-0.07442175596952438
-0.04589138180017471
-0.12617790699005127
-0.08660171180963516
-0.1241038516163826
-0.09594277292490005
-0.11280734837055206
-0.109493687748909
-0.10251954197883606
-0.0409110002219677
-0.11827749758958817
-0.10908085852861404
-0.07487046718597412
0.014095216989517212
-0.07199862599372864
-0.023396791890263557
-0.10921521484851837
-0.02669188566505909
-0.11540208756923676
-0.03292851150035858
-0.07095354795455933
-0.013478771783411503
-0.03896183893084526
-0.05074772983789444
-0.05225547030568123
0.043695658445358276
-0.040075019001960754
0.010677975602447987
0.028086811304092407
0.06717044115066528
-0.0341002494096756
-0.10540185123682022
-0.004774597939103842
-0.05516990274190903
-0.00414709746837616
0.039655901491642
-0.011699892580509186
0.05458752065896988
-0.0031461194157600403
-0.0790385901927948
-0.0735725536942482
-0.012768715620040894
-0.0907515287399292
-0.013233460485935211
-0.10248859971761703
0.010584890842437744
0.021761592477560043
-0.11049182713031769
-0.08037079125642776
-0.08823292702436447
-0.08966638892889023
-0.10599018633365631
-0.017775896936655045
-0.10380110889673233
-0.08190994709730148
0.02454402856528759
-0.11753461509943008
-0.12543365359306335
-0.05360008403658867
-0.03164783865213394
-0.11708878725767136
-0.07480088621377945
-0.1115245595574379
0.01977929286658764
-0.13881146907806396
-0.04531306028366089
-0.10442699491977692
-0.038567427545785904
-0.037910256534814835
-0.022214600816369057
-0.07119820266962051
-0.008816320449113846
-0.034250855445861816
-0.01901909150183201
0.0037378165870904922
-0.00840863585472107
0.0006813019281253219
-0.08063187450170517
-0.0978187844157219
-0.08706159144639969
0.01718689315021038
-0.11450156569480896
-0.04027562215924263
-0.048400841653347015
-0.03220392018556595
0.004423326812684536
-0.10891678929328918
-0.03765028342604637
0.007783613633364439
-0.06542660295963287
-0.09547188878059387
-0.20114056766033173
0.13256807625293732
0.14988712966442108
-0.017573758959770203
-0.14092090725898743
0.10687704384326935
0.21888616681098938
0.08789769560098648
0.08306479454040527
0.05816606432199478
0.19991947710514069
-0.15773528814315796
-0.2469453513622284
-0.020666848868131638
-0.08984241634607315
0.06989315152168274
0.3104177713394165
-0.16490213572978973
-0.4668065011501312
-0.30344754457473755
0.14263658225536346
0.08378953486680984
-0.5519707202911377
-0.35633522272109985
-0.3573547303676605
0.00811866857111454
-0.12708808481693268
-0.10941678285598755
-0.32958292961120605
-0.19851218163967133
0.09421752393245697
-0.07014543563127518
-0.33239462971687317
-0.31083419919013977
-0.37853872776031494
0.16154558956623077
-0.09414733201265335
-0.11071889847517014
-0.0641910582780838
-0.01625744253396988
-0.02075817435979843
0.09697668254375458
0.3293381929397583
0.14807003736495972
-0.09158051759004593
0.12974099814891815
0.22668829560279846
0.006701737176626921
-0.09552076458930969
0.1082443818449974
0.02655218541622162
0.34416908025741577
0.12266246229410172
-0.1310071051120758
-0.18599854409694672
0.15959329903125763
0.11437783390283585
0.06458614766597748
0.0386795699596405
0.029802745208144188
-0.051156800240278244
-0.08633996546268463
-0.0835685133934021
-0.019945096224546432
0.10026536136865616
0.08399613201618195
-0.1599300056695938
-0.09495049715042114
-0.164000004529953
-0.10861349105834961
-0.10472434759140015
-0.14649680256843567
-0.21971626579761505
-0.1896868646144867
-0.3408677875995636
0.203703373670578
-0.1111101359128952
-0.3186354637145996
0.1982489377260208
0.4384833872318268
0.143153578042984
0.2922000288963318
-0.22094659507274628
-0.16457846760749817
-0.36034050583839417
-0.18784666061401367
-0.004072840325534344
0.19793851673603058
-0.5344710946083069
-0.32053449749946594
-0.09120995551347733
-0.38013985753059387
-0.22099237143993378
-0.05987291783094406
-0.06403184682130814
0.1708810031414032
0.3220078647136688
0.3330126106739044
-0.0204459335654974
-0.042035624384880066
-0.4023849070072174
0.03445081040263176
0.11228212714195251
-0.07346370071172714
0.12399748712778091
-0.31987932324409485
-0.41474005579948425
0.0815959945321083
0.17097413539886475
0.005827687215059996
-0.14077992737293243
-0.6693141460418701
-0.002619014820083976
0.04278130829334259
0.017913497984409332
-0.4026396870613098
-0.3023582994937897
-0.004509700462222099
0.06441044062376022
-0.002119631040841341
-0.3652876615524292
-0.2271117866039276
-0.0686439573764801
-0.23405906558036804
-0.2699650526046753
0.011362106539309025
0.2870212495326996
0.2538824677467346
0.09656620025634766
0.09975418448448181
0.44210323691368103
0.11661003530025482
0.03753355145454407
0.14907053112983704
-0.16423816978931427
0.12401949614286423
-0.0831579864025116
-0.5389025211334229
-0.7145176529884338
-0.5274483561515808
0.3334578573703766
0.24837090075016022
-0.671140730381012
-0.5218236446380615
-0.6535808444023132
0.24391192197799683
0.15821287035942078
-0.17909598350524902
-0.2863166928291321
-0.41405752301216125
-0.28419211506843567
-0.4602526128292084
-0.16279590129852295
0.24725346267223358
0.07378891855478287
-0.03460549935698509
-0.2322458028793335
0.1938350647687912
0.39397934079170227
0.10081984102725983
-0.5874242186546326
-0.5074771642684937
-0.5147240161895752
-0.4889715611934662
-0.24834445118904114
-0.19897429645061493
-0.23145084083080292
0.0020337095484137535
-0.16300040483474731
-0.011037520132958889
0.035666290670633316
0.13415594398975372
0.404378741979599
0.17090751230716705
0.13473720848560333
0.19519191980361938
0.17584988474845886
-0.19896134734153748
0.05462125316262245
0.3132285177707672
-0.13348209857940674
-0.45480790734291077
-0.14858801662921906
0.3202589452266693
0.2320035845041275
-0.6142439842224121
-0.5417062640190125
0.09296654909849167
0.011078177019953728
-0.2822824716567993
-0.596788763999939
-0.6968631744384766
-0.877798855304718
-0.5850081443786621
-0.13269229233264923
-0.09000837057828903
0.1442759931087494
0.24351610243320465
0.2750419080257416
0.17696088552474976
0.036305300891399384
-0.014421625062823296
-0.07629440724849701
0.059038739651441574
0.12761451303958893
0.06762835383415222
-0.4750487804412842
0.004294371232390404
0.20098280906677246
0.10499896109104156
-0.17696301639080048
0.0662415474653244
-0.20910128951072693
-0.34652408957481384
-0.08663331717252731
-0.1974737048149109
-0.03277919813990593
-0.3572412133216858
-0.232472762465477
-0.08105316758155823
-0.12241426855325699
0.15851087868213654
-0.1748584508895874
-0.06203912943601608
0.13746236264705658
-0.32516539096832275
0.052796028554439545
0.2997426390647888
0.04229765757918358
-0.4126167297363281
-0.2246781587600708
-0.2621588408946991
-0.20765641331672668
-0.18294954299926758
0.0463823527097702
-0.1396574079990387
-0.19618983566761017
0.2827422022819519
0.3544485867023468
0.39171484112739563
-0.24733023345470428
-0.42574357986450195
0.1993216574192047
-0.09064993262290955
-0.518338680267334
-0.09233918786048889
-0.46711447834968567
-0.5083885788917542
-0.26956087350845337
-0.19648882746696472
0.42900997400283813
0.43840113282203674
0.251842200756073
-0.13456940650939941
0.16638685762882233
0.28555363416671753
0.3840194344520569
0.03335769847035408
0.5265637636184692
0.11830291897058487
-0.20245636999607086
-0.2919164299964905
-0.5355265140533447
-0.5357215404510498
-0.30442124605178833
-0.30879002809524536
-0.6362484097480774
-0.9248296022415161
-0.5618177056312561
-0.18266895413398743
-0.21432416141033173
-0.15502727031707764
-0.1864197701215744
0.46690133213996887
0.30410686135292053
0.05781002715229988
0.31422385573387146
0.3563927114009857
0.01315788459032774
-0.037901464849710464
-0.2559475898742676
-0.3302098214626312
-0.3984511196613312
-0.2797897756099701
-0.1410622000694275
-0.07950865477323532
0.14692367613315582
0.05233284831047058
0.00686040660366416
0.067283034324646
0.03452469781041145
0.43181511759757996
0.6205263137817383
0.3980995714664459
0.3511275351047516
0.45908302068710327
0.3384439945220947
0.1926974207162857
-0.13709771633148193
-0.08026879280805588
0.03865901008248329
0.09809425473213196
0.1466277688741684
-0.2491120845079422
-0.41350165009498596
-0.37514716386795044
-0.2951907813549042
-0.19432853162288666
0.07794854789972305
0.04028571769595146
0.262754887342453
0.29182565212249756
0.06168016418814659
0.0387549102306366
-0.1476653516292572
0.41098859906196594
0.19013570249080658
-0.022700028494000435
-0.0882282555103302
-0.020705571398139
-0.1788707673549652
0.059582214802503586
0.10183683782815933
-0.14396770298480988
-0.008417712524533272
0.14383120834827423
-0.07035549730062485
0.06318047642707825
-0.09668005257844925
-0.1988143026828766
0.2023862898349762
-0.05601466819643974
-0.3088468313217163
-0.4416494071483612
-0.3804779648780823
0.05180048570036888
0.4310564696788788
0.07275795191526413
-0.20899705588817596
-0.0890459343791008
0.24455706775188446
0.33921170234680176
0.17853404581546783
-0.0864342525601387
-0.3079184293746948
-0.3045606017112732
-0.05109691247344017
0.10647554695606232
0.23704098165035248
0.012781486846506596
0.15888071060180664
-0.045727141201496124
-0.12697024643421173
-0.2522839903831482
-0.11521715670824051
-0.020733250305056572
0.10178825259208679
0.18114976584911346
0.014701271429657936
-0.01854059286415577
-0.019659066572785378
0.056767575442790985
0.2602691054344177
0.2984839081764221
-0.10269810259342194
0.09165065735578537
0.24138078093528748
0.042064420878887177
0.07729367166757584
-0.05860097333788872
0.12323668599128723
0.11931709200143814
-0.10058621317148209
0.041061535477638245
-0.06863024830818176
0.0031098255421966314
0.04863809794187546
-0.25431519746780396
-0.06931210309267044
-0.036882732063531876
0.1259172260761261
0.11497914046049118
-0.44660404324531555
-0.43327629566192627
-0.3323322832584381
-0.12482541054487228
-0.47114020586013794
-0.11830747127532959
-0.2778503894805908
-0.5542357563972473
-0.06656517088413239
0.12423796951770782
0.3569802939891815
0.20649349689483643
-0.392776221036911
0.17414535582065582
-0.08181406557559967
0.1005612388253212
0.062245141714811325
-0.33040785789489746
0.014658364467322826
0.24404248595237732
0.12221980094909668
0.1524731069803238
0.054230060428380966
-0.07918619364500046
-0.4700112044811249
-0.0034038610756397247
-0.002674397546797991
-0.2783755660057068
-0.36240458488464355
-0.7694140672683716
-0.23671890795230865
0.14907206594944
-0.00610805070027709
-0.40714511275291443
-0.3975466191768646
-0.24907620251178741
0.1922539472579956
0.21396617591381073
0.05169954523444176
-0.16467417776584625
-0.06819267570972443
0.12254022061824799
-0.08417177200317383
-0.03217758983373642
-0.4944476783275604
-0.2699888050556183
-0.320602685213089
-0.172532320022583
-0.00404440937563777
0.3483275771141052
0.07534705847501755
0.16632616519927979
-0.1055331751704216
0.22822971642017365
0.2578420341014862
0.15686196088790894
0.06789717823266983
-0.055469997227191925
0.37628239393234253
0.6181687712669373
0.17638103663921356
-0.006700826808810234
0.16383768618106842
-0.15135204792022705
-0.26617124676704407
-0.16605722904205322
-0.0852479562163353
-0.5109158158302307
0.26598724722862244
-0.08964040130376816
-0.07689950615167618
0.15140770375728607
0.17092488706111908
0.042658332735300064
-0.028039585798978806
0.08281766623258591
0.18609307706356049
-0.041643284261226654
-0.8636537790298462
-0.7250036001205444
-0.5741177797317505
-0.5139951109886169
-0.4222783148288727
-0.36197561025619507
-0.19842493534088135
-0.20893333852291107
-0.5420872569084167
-0.31754830479621887
-0.13860361278057098
-0.006044556852430105
0.04439903050661087
-0.0344468429684639
-0.11513925343751907
0.07766450941562653
0.08265171945095062
-0.026719972491264343
0.15276306867599487
0.14450480043888092
0.024112459272146225
0.11536357551813126
0.005806350614875555
0.14675025641918182
0.35231152176856995
-0.16947980225086212
-0.04983590543270111
-0.03847296163439751
0.2933984100818634
-0.02927493117749691
-0.5801137089729309
-0.25532621145248413
-0.22145946323871613
-0.2138475477695465
-0.4576718211174011
0.15305906534194946
-0.04474269598722458
-0.39749372005462646
-0.23829153180122375
-0.6242939233779907
0.2405804842710495
0.28652554750442505
0.242853581905365
-0.08426154404878616
0.19616380333900452
-0.15782135725021362
-0.20884984731674194
-0.3180198669433594
-0.05983169749379158
-0.09689507633447647
-0.128193661570549
-0.39464709162712097
-0.3327641189098358
-0.18833014369010925
-0.19377462565898895
-0.19915500283241272
-0.17153039574623108
-0.5268465280532837
-0.4161634147167206
-0.23450765013694763
0.13438346982002258
0.0012301345122978091
-0.12985694408416748
0.03292530030012131
-0.011242716573178768
-0.2951809763908386
-0.47121503949165344
-0.35047194361686707
-0.46645301580429077
-0.4148577153682709
0.39640989899635315
0.1508551687002182
0.025987429544329643
-0.038674090057611465
-0.06827931851148605
0.21584811806678772
0.24269115924835205
0.29917821288108826
0.26161596179008484
0.18395884335041046
-0.16269518435001373
-0.4014887511730194
-0.09230589866638184
0.06949526071548462
-0.33324769139289856
-0.28111740946769714
-0.024253955110907555
0.017693279311060905
-0.2496560513973236
-0.926817774772644
-0.19360898435115814
0.14422562718391418
0.10046201944351196
-0.012147326953709126
0.2753010094165802
-0.34841662645339966
-0.14422322809696198
0.018061576411128044
0.05356774851679802
0.30243542790412903
-0.08226128667593002
-0.07174578309059143
-0.06984004378318787
0.06729099154472351
0.2352754920721054
-0.2418665885925293
-0.20708811283111572
-0.388860285282135
-0.19535216689109802
-0.11593551188707352
0.14013248682022095
0.29515090584754944
0.0684199333190918
-0.23749154806137085
-0.22672046720981598
0.30641454458236694
0.2863852381706238
0.21534772217273712
0.043755754828453064
0.057659730315208435
0.08359090983867645
-0.1849784106016159
-0.08127470314502716
-0.08323077857494354
-0.4833749532699585
0.30230531096458435
0.09497284889221191
-0.05273637920618057
-0.7384018301963806
-0.9108495116233826
-0.02359137125313282
0.10295045375823975
0.178541898727417
0.08911583572626114
-0.2886970043182373
0.07003272324800491
0.3113296627998352
0.25094813108444214
0.16913804411888123
0.17766299843788147
-0.22098369896411896
0.06224406883120537
0.3578174114227295
-0.0358477346599102
0.2049199640750885
0.004077491350471973
0.06008930131793022
-0.05960909649729729
0.11408507078886032
0.027546003460884094
-0.15392626821994781
0.1870691180229187
0.24625273048877716
-0.07786788046360016
-0.46919679641723633
0.05330152064561844
0.3468613922595978
0.0204933974891901
-0.5028916001319885
-0.02367374114692211
0.18008430302143097
-0.13896186649799347
-0.12655027210712433
-0.2378799170255661
-0.20917044579982758
0.15703904628753662
0.06393378973007202
0.03220653906464577
-0.13893012702465057
-0.507585883140564
-0.10863816738128662
0.017760898917913437
-0.2815764844417572
-0.1950474977493286
0.2536851167678833
-0.31825435161590576
-0.487042099237442
0.026856370270252228
0.5112498998641968
0.018980300053954124
-0.23440368473529816
0.1401664763689041
0.2518356740474701
0.12625177204608917
-0.4558870494365692
-0.04240811616182327
0.21810854971408844
0.13209106028079987
-0.16505251824855804
-0.22526904940605164
0.017285943031311035
0.03661578148603439
0.13478143513202667
-0.0612727515399456
-0.15409308671951294
0.17359347641468048
0.036158110946416855
-0.08391367644071579
-0.11188044399023056
-0.08014962822198868
0.02638581395149231
0.11490768194198608
-0.12941579520702362
0.07367526739835739
0.1754993349313736
0.016263263300061226
-0.12600071728229523
0.03042011708021164
0.23474019765853882
-0.08079317212104797
0.15704785287380219
-0.044197287410497665
-0.06413450837135315
-0.12066221982240677
-0.3094714879989624
0.044553838670253754
0.1298433244228363
-0.052023593336343765
0.33708828687667847
0.04311583936214447
-0.033436261117458344
-0.053667474538087845
0.2841677665710449
0.25432249903678894
-0.3928629159927368
0.05845368653535843
-0.24133862555027008
-0.24936950206756592
-0.2305477410554886
-0.0673762708902359
-0.05308746546506882
-0.24850524961948395
-0.23841188848018646
0.09892579913139343
-0.03952746465802193
0.17846013605594635
0.148262158036232
0.16638998687267303
0.05522605776786804
0.07573875039815903
-0.356282502412796
-0.31797143816947937
0.1126752570271492
-0.0232852790504694
-0.05879110097885132
0.08224248886108398
-0.1822584718465805
-0.3277985751628876
-0.0015359510434791446
0.09983885288238525
-0.05222336947917938
-0.3465713560581207
-0.23841197788715363
0.08581168949604034
0.19677112996578217
-0.20112334191799164
-0.5635746717453003
0.1667817234992981
0.22169137001037598
0.06488282233476639
-0.2540881633758545
-0.13434575498104095
0.00748091284185648
-0.06966749578714371
-0.0413786955177784
0.03968150541186333
0.1446448117494583
0.0843595415353775
0.14733031392097473
0.20270949602127075
-0.047984588891267776
0.3129725754261017
0.330875962972641
-0.36888980865478516
-0.3648962080478668
-0.12240913510322571
-0.06107412651181221
-0.3063404858112335
-0.43471917510032654
-0.23147940635681152
0.05519169196486473
-0.39821311831474304
0.09587904065847397
0.0764642059803009
-0.11603238433599472
-0.24871429800987244
-0.06979027390480042
-0.01756531558930874
0.08059819787740707
0.1858433485031128
0.05583380535244942
0.13014733791351318
0.02261507511138916
-0.09430072456598282
-0.03962766006588936
-0.047149658203125
0.014809014275670052
0.10173214972019196
0.40415969491004944
0.07439375668764114
0.17953501641750336
0.3357705771923065
0.4218761920928955
0.2585170567035675
-0.08481229096651077
-0.13022755086421967
-0.1543060839176178
0.054865770041942596
-0.15560156106948853
-0.21104881167411804
-0.31926366686820984
-0.12557391822338104
-0.252240926027298
-0.18823063373565674
-0.29108408093452454
-0.006736628711223602
0.001429214607924223
0.2270321249961853
0.1793324053287506
-0.11347731947898865
0.02048921212553978
-0.0035289591178297997
-0.04054342955350876
0.09381357580423355
0.21084024012088776
0.06426412612199783
0.07677188515663147
0.2336845099925995
0.30562129616737366
0.06449466943740845
0.004561701789498329
0.13339893519878387
0.0973002091050148
-0.08958949893712997
-0.2261001616716385
-0.3466111123561859
-0.20074760913848877
-0.24647647142410278
-0.27290859818458557
-0.14376132190227509
-0.031286049634218216
0.06984877586364746
0.062408749014139175
0.22684824466705322
0.08417629450559616
0.10320417582988739
0.22080755233764648
0.4939386546611786
0.11301282048225403
-0.03539223223924637
0.15405528247356415
0.09775785356760025
-0.08396414667367935
-0.09626084566116333
0.056809332221746445
-0.0431281216442585
0.1401820182800293
-0.06205260008573532
-0.10981864482164383
-0.21316874027252197
-0.0627552717924118
0.10409141331911087
-0.1877569556236267
-0.2878289520740509
-0.18332675099372864
-0.004081913735717535
-0.01224835030734539
-0.35121792554855347
-0.12726321816444397
-0.2623712718486786
-0.02448747307062149
-0.24727541208267212
-0.5341207981109619
-0.48728659749031067
-0.15745891630649567
-0.025510549545288086
0.09089671075344086
-0.23350359499454498
-0.1580180823802948
0.1171540841460228
-0.12700985372066498
-0.020917506888508797
0.11265463382005692
0.3106692433357239
0.10375533998012543
0.05993007495999336
-0.04698643460869789
-0.018299100920557976
-0.05287455767393112
-0.12343969196081161
0.14830893278121948
0.00605431105941534
0.22123368084430695
0.15882006287574768
-0.0478699691593647
0.0783863440155983
-0.08181891590356827
-0.028259269893169403
-0.23115859925746918
-0.21641644835472107
-0.1546640694141388
-0.46815282106399536
-0.45865437388420105
-0.28966665267944336
0.04749191552400589
0.004886401817202568
-0.11914625018835068
-0.29961103200912476
-0.07056444138288498
-0.040559813380241394
0.05400953069329262
-0.024861201643943787
-0.15464627742767334
-0.010369784198701382
0.19146154820919037
-0.17262108623981476
-0.2752933204174042
-0.2890523076057434
0.17116756737232208
0.17695094645023346
0.022745564579963684
0.08296290040016174
0.34882062673568726
0.05924317613244057
0.04948611557483673
-0.023906895890831947
-0.017529180273413658
0.08702320605516434
0.2909723222255707
0.06859225779771805
-0.012354111298918724
0.5146390199661255
0.5884705781936646
0.15078698098659515
-0.33510729670524597
-0.3286716938018799
-0.1784091740846634
-0.03987971693277359
0.14963467419147491
0.2809295952320099
0.1003451868891716
0.05346370488405228
-0.23273977637290955
-0.13906151056289673
0.17479075491428375
0.03426974266767502
0.07276587933301926
0.16668322682380676
0.028444329276680946
0.06196244806051254
-0.4413768947124481
-0.35457271337509155
0.16285847127437592
0.045533061027526855
-0.2522907555103302
-0.49217021465301514
-0.35638415813446045
-0.20189057290554047
-0.30971235036849976
-0.3300049602985382
-0.3719651401042938
-0.09765833616256714
-0.07553626596927643
-0.014329517260193825
0.09130594879388809
-0.0661691203713417
-0.0927988588809967
-0.012886516749858856
-0.38156935572624207
-0.0003936715074814856
0.12265641987323761
-0.17069527506828308
-0.20027758181095123
0.038356248289346695
0.12229170650243759
0.16171428561210632
-0.062077224254608154
-0.06348743289709091
0.17973607778549194
0.3049675226211548
-0.2212529182434082
-0.16552014648914337
0.08923894166946411
-0.0622134730219841
-0.07106926292181015
-0.3359704315662384
-0.40767425298690796
-0.2094750553369522
-0.0556936115026474
0.07737865298986435
0.22025230526924133
0.18563751876354218
0.14656756818294525
0.21473082900047302
-0.0699232742190361
-0.04939925670623779
0.2643143832683563
0.12555797398090363
-0.10313082486391068
-0.09403499215841293
0.1543884426355362
0.1616508960723877
-0.2510809004306793
-0.19957488775253296
-0.21837733685970306
0.08884424716234207
-0.05940640717744827
-0.22949983179569244
-0.2812585234642029
-0.49298757314682007
-0.3074896037578583
-0.32270437479019165
-0.452339768409729
-0.2513861358165741
-0.20250242948532104
-0.41615721583366394
-0.37450602650642395
-0.2507563829421997
-0.25744950771331787
-0.4958163797855377
0.40870025753974915
-0.031687311828136444
-0.2874894142150879
-0.23242256045341492
-0.11679408699274063
0.3704201281070709
0.41762205958366394
0.03497152402997017
0.0719800516963005
0.2507369816303253
-0.19379907846450806
0.162014439702034
0.31737685203552246
0.3566414713859558
0.03820928558707237
-0.21324631571769714
-0.2970864474773407
-0.029414517804980278
-0.11278021335601807
-0.48845645785331726
-0.16309429705142975
0.13368597626686096
0.0394374318420887
0.0023939544335007668
0.07608114182949066
-0.385593056678772
-0.24609404802322388
-0.1729532927274704
-0.3095233738422394
-0.22315937280654907
0.1174725815653801
-0.7242398858070374
-0.11336779594421387
0.1525801569223404
-0.03585696965456009
0.21719084680080414
-0.45511525869369507
-0.0326479971408844
0.0524807870388031
-0.020082851871848106
0.043999772518873215
-0.49477484822273254
-0.2667825520038605
0.05124245584011078
-0.1469009667634964
0.05486840754747391
0.1118689775466919
-0.11346936225891113
-0.10103723406791687
-0.02975527010858059
0.11301092058420181
0.4659338593482971
0.35895296931266785
-0.016937250271439552
-0.14321967959403992
0.22181867063045502
0.21434596180915833
-0.18355435132980347
0.06092296540737152
-0.31567150354385376
-0.12533701956272125
0.3266676068305969
-0.006203096359968185
-0.10217074304819107
-0.1448194533586502
-0.49580448865890503
0.014706294983625412
0.21750959753990173
-0.15690740942955017
-0.06297450512647629
0.2475685030221939
-0.2061745971441269
-0.30019766092300415
-0.10004545748233795
0.1523040384054184
0.2913314402103424
0.3779517114162445
-0.07103775441646576
-0.3884677290916443
-0.7785801887512207
0.10946941375732422
0.2740617096424103
-0.03620445355772972
0.06315600126981735
-0.16405634582042694
0.1088649332523346
0.11626891046762466
0.10894140601158142
0.19365458190441132
0.1230764091014862
-0.0443844273686409
0.043835267424583435
-0.10682143270969391
-0.06780719012022018
-0.05908387899398804
-0.11186154931783676
-0.08443998545408249
-0.13288985192775726
-0.17871814966201782
0.2607342600822449
-0.030637959018349648
0.1051921546459198
-0.5543000102043152
-0.29608842730522156
-0.1089082732796669
0.09054247289896011
0.1639316827058792
-0.3704668879508972
-0.4694611430168152
-0.46389931440353394
-0.16347596049308777
0.0801917165517807
0.19904857873916626
-0.11879213899374008
-0.38577425479888916
0.10182572156190872
0.3274834454059601
0.10631600767374039
-0.19640792906284332
-0.1025940328836441
-0.04659787192940712
-0.3282086253166199
-0.29400143027305603
-0.5080530047416687
0.14115488529205322
0.14324207603931427
0.04985566437244415
-0.1273125261068344
-0.5362732410430908
-0.538922905921936
-0.08229187875986099
0.1924571990966797
0.18805451691150665
0.15445023775100708
-0.06942849606275558
0.14993563294410706
0.21192853152751923
0.015691116452217102
0.0204477421939373
0.19608506560325623
-0.11951639503240585
0.01739993691444397
0.07216736674308777
-0.01679983362555504
-0.007515591103583574
-0.8018128871917725
-0.393157035112381
-0.0021439490374177694
0.036012306809425354
0.2770378291606903
-0.4965575039386749
-0.4468497335910797
-0.20799803733825684
0.08625400811433792
0.4241448640823364
-0.3076096773147583
-0.21713343262672424
-0.39525488018989563
-0.5684877038002014
-0.5022710561752319
-0.1863848865032196
0.0549013577401638
0.058967821300029755
0.022920824587345123
-0.21063970029354095
-0.28723952174186707
0.09390150755643845
0.10604439675807953
0.2048642784357071
0.051472146064043045
-0.41403838992118835
-0.2053086757659912
0.09443645179271698
0.16382765769958496
-0.1723301261663437
-0.025983113795518875
-0.2084769308567047
-0.15527504682540894
-0.15163221955299377
-0.4703317880630493
0.10512199997901917
-0.1300314962863922
0.06721486896276474
0.22858494520187378
-0.16444827616214752
0.11931880563497543
0.09394007921218872
0.29888418316841125
0.32225123047828674
0.27397236227989197
-0.23506096005439758
0.23189538717269897
0.5426545739173889
0.39754751324653625
0.04290925711393356
0.5922094583511353
0.4218706786632538
0.10146002471446991
-0.18837711215019226
-0.33568328619003296
0.27166324853897095
0.5662713050842285
0.3635666072368622
0.18176667392253876
-0.32123836874961853
-0.13871434330940247
0.0441412590444088
0.18423953652381897
0.35853224992752075
0.5050193667411804
-0.2938156723976135
-0.17924530804157257
-0.09858729690313339
-0.01961946114897728
0.2603442370891571
-0.3367118835449219
-0.2613416910171509
-0.16474971175193787
-0.2073492407798767
-0.44686973094940186
0.08879777789115906
-0.29038870334625244
-0.3583482801914215
-0.5449626445770264
-0.14685702323913574
-0.21893233060836792
-0.5795457363128662
-0.311632364988327
0.02564632147550583
0.16004687547683716
-0.3730536699295044
-0.24819183349609375
0.19410140812397003
0.11707932502031326
-0.023842889815568924
-0.10072211176156998
0.0773153156042099
0.134185329079628
-0.040890298783779144
0.2508671283721924
0.30049747228622437
0.13946858048439026
-0.12251836806535721
-0.01414506696164608
-0.08028492331504822
0.12307915091514587
-0.15746155381202698
-0.08213970065116882
-0.3895723819732666
-0.2610401511192322
0.09324517101049423
-0.030689476057887077
-0.4230160713195801
0.02859426848590374
0.3561677932739258
0.12143038213253021
-0.07973748445510864
-0.3799724280834198
0.34870532155036926
0.5424063205718994
0.1148943305015564
-0.18331414461135864
0.25916266441345215
0.40322262048721313
0.10270635783672333
-0.07542883604764938
0.10119659453630447
0.12448017299175262
-0.009276232682168484
0.29687950015068054
0.05329347401857376
0.009548029862344265
-0.1332506388425827
-0.09084869921207428
0.10446353256702423
-0.15750092267990112
-0.14571921527385712
-0.40537092089653015
-0.19341911375522614
0.11192542314529419
-0.22399300336837769
-0.11133932322263718
-0.38863906264305115
-0.13502591848373413
0.033224109560251236
-0.128819078207016
-0.3779960572719574
-0.0028203974943608046
0.12953250110149384
0.04637569934129715
0.0921972468495369
-0.12153197824954987
0.33796438574790955
0.27841275930404663
-0.18310150504112244
-0.13319982588291168
-0.3289530873298645
-0.025430694222450256
0.32776257395744324
0.15617164969444275
0.16909167170524597
-0.34326431155204773
-0.003583892248570919
0.2973274290561676
-0.18844859302043915
-0.12003183364868164
-0.001541289035230875
-0.12898947298526764
-0.7260341644287109
-0.010024812072515488
0.07212147116661072
-0.08498764783143997
-0.23837871849536896
-0.44726327061653137
-0.13375398516654968
-0.3001267910003662
-0.30433058738708496
-0.23128214478492737
-0.3229380249977112
-0.15607112646102905
0.3165552616119385
0.3091203570365906
0.07370152324438095
-0.16391496360301971
0.1943201720714569
0.367267906665802
0.486673504114151
-0.21960340440273285
-0.16889984905719757
-0.08389566838741302
0.20534157752990723
0.060825858265161514
-1.0711473226547241
-0.14605283737182617
-0.06747596710920334
-0.14266353845596313
-0.3748883306980133
-0.2157997041940689
0.04846184328198433
0.15446308255195618
-0.11953495442867279
-0.225070983171463
0.14140190184116364
0.23292572796344757
0.19797131419181824
-0.16859479248523712
-0.29985034465789795
-0.3088597357273102
-0.21740147471427917
0.14897316694259644
-0.563819408416748
-0.4025900065898895
0.12331579625606537
0.08570133149623871
-0.14466314017772675
0.11829740554094315
0.36136144399642944
0.16515037417411804
-0.09633856266736984
-0.12228580564260483
0.1261596977710724
-0.21676409244537354
-0.2593427896499634
0.07354260981082916
-0.2616063356399536
-0.010836634784936905
-0.07300111651420593
0.08161238580942154
0.06799124926328659
-0.15158137679100037
-0.3707500398159027
-0.1111803874373436
0.32533371448516846
-0.006823364179581404
-0.11009756475687027
-0.021147148683667183
0.06832189112901688
-0.11115086823701859
0.0847194567322731
-0.2488093376159668
0.2211720049381256
-0.3747670352458954
-0.39471137523651123
-0.04245626553893089
-0.0785677507519722
-0.2873220443725586
-0.06096687912940979
-0.22330452501773834
0.09593955427408218
0.17627856135368347
0.12121693789958954
0.22833405435085297
0.042206697165966034
0.15023712813854218
-0.08342312276363373
-0.25108426809310913
-0.39291077852249146
-0.2316567599773407
-0.18784742057323456
0.023260075598955154
-0.14132411777973175
-0.018735835328698158
-0.4029368758201599
0.0263232234865427
-0.04605591669678688
0.2590918242931366
-0.09643185138702393
-0.4476727843284607
0.1363365352153778
-0.031156402081251144
0.18021920323371887
-0.5354697108268738
0.14147815108299255
0.14300590753555298
-0.1425664722919464
-0.14032721519470215
-0.25622060894966125
0.2789797782897949
0.04060930386185646
-0.035860173404216766
-0.189155712723732
-0.2131904810667038
0.05220210924744606
-0.0006108179222792387
0.1342332512140274
-0.021692678332328796
0.06437148153781891
0.013930097222328186
0.042721398174762726
0.08525440096855164
-0.06519532203674316
-0.5865342617034912
-0.16322658956050873
0.13146844506263733
0.057581380009651184
-0.3345828056335449
-0.523012638092041
0.060593124479055405
0.19841794669628143
-0.34387579560279846
-0.3564121425151825
-0.014578483998775482
0.26917901635169983
0.1315721869468689
-0.20087051391601562
-0.26583290100097656
0.04319839924573898
-0.14760640263557434
-0.2823669910430908
-0.10605259239673615
-0.18397513031959534
0.23075240850448608
0.6052416563034058
-0.3264884352684021
-0.1084846779704094
-0.2539605498313904
0.4765830934047699
0.49431222677230835
-0.47647425532341003
-0.28749656677246094
0.052998390048742294
0.3861277401447296
-0.1953570395708084
-0.20365914702415466
-0.17288218438625336
-0.10966276377439499
0.27777162194252014
-0.10090499371290207
-0.12090786546468735
-0.0800681784749031
-0.03543345630168915
-0.39945733547210693
0.05233839154243469
-8.467554289381951e-05
0.017046324908733368
-0.07946231216192245
-0.7126165628433228
-0.12411677837371826
0.22542864084243774
0.042795393615961075
-0.47178179025650024
-1.0456316471099854
0.24394351243972778
0.15518362820148468
0.022710446268320084
-0.24640434980392456
-0.7889184355735779
0.2798137366771698
0.13123255968093872
0.11642064154148102
-0.48403045535087585
0.27724552154541016
0.30577927827835083
0.15998578071594238
0.1818700134754181
-0.009540119208395481
0.11138550192117691
-0.03438399359583855
0.35148558020591736
0.1831457018852234
0.5144393444061279
0.05877953767776489
-0.18917568027973175
-0.04180565103888512
0.13066333532333374
0.4261886179447174
0.11549291759729385
-0.7755521535873413
0.0521780326962471
0.30879175662994385
0.2877679169178009
-0.17608381807804108
-0.6106138229370117
-0.3098773658275604
-0.08761372417211533
0.07369152456521988
-0.39648035168647766
0.03190876170992851
-0.5643069744110107
-0.12770766019821167
0.008928494527935982
0.1669939160346985
0.008852656930685043
-0.14438574016094208
-0.22777381539344788
-0.10301946848630905
0.2003418654203415
0.18426702916622162
-0.21444739401340485
-0.48880863189697266
-0.12306532263755798
0.08176510781049728
0.3155518174171448
0.03905091807246208
-0.13614319264888763
-0.4851702153682709
-0.2685944437980652
0.38259157538414
0.2443944811820984
-0.10036089271306992
-0.8305059671401978
-0.5188178420066833
-0.18002985417842865
0.049231138080358505
0.009486043825745583
-0.21903494000434875
-0.3145996630191803
0.20920111238956451
0.10814035683870316
0.15664538741111755
-0.39552637934684753
-5.904003046452999e-07
0.4004548192024231
0.20341351628303528
0.14761392772197723
-0.2050592303276062
-0.2386656403541565
-0.1427115797996521
0.20144091546535492
0.05645918473601341
0.14995771646499634
0.0444939061999321
-0.05117923021316528
0.03258819878101349
0.03290452063083649
0.18485906720161438
0.1223432719707489
-0.15477733314037323
-0.10841938108205795
-0.2017592042684555
0.20979101955890656
-0.010613047517836094
-0.09742926806211472
-0.3725428581237793
-0.15063849091529846
-0.1413637101650238
0.1893197000026703
0.11454442888498306
-0.4021664559841156
-0.2777148187160492
-0.40996068716049194
0.3298049569129944
0.4195302128791809
0.010904483497142792
-0.23979981243610382
-0.21955165266990662
0.11075908690690994
0.1887894868850708
0.1932205706834793
-0.14032477140426636
0.3072086572647095
-0.4421048164367676
-0.5787184238433838
-0.1805437058210373
-0.24071680009365082
-0.11979945749044418
0.08487164974212646
-0.14837902784347534
-0.2613571286201477
-0.32590848207473755
0.14822588860988617
-0.1036938801407814
-0.4930141866207123
-0.09233425557613373
-0.24600420892238617
0.1603035032749176
-0.33877378702163696
-0.4510626792907715
-0.15015637874603271
-0.17584170401096344
0.11405657976865768
0.1709377020597458
-0.022975709289312363
-0.1329793930053711
0.07378940284252167
0.06203489750623703
0.12807819247245789
0.4607418179512024
0.3759739398956299
0.11090217530727386
0.08243667334318161
0.17124858498573303
0.19433873891830444
0.10794028639793396
-0.04354296624660492
0.08257199823856354
0.03023742139339447
0.12343078851699829
-0.02903137169778347
-0.07575105875730515
-0.09941694140434265
-0.060370445251464844
0.26924747228622437
0.18679609894752502
-0.2771099805831909
-0.3766489624977112
-0.6652601957321167
-0.1868555098772049
0.2763349115848541
0.19704395532608032
-0.03642209246754646
-0.6953065395355225
-0.6094675660133362
-0.059742823243141174
0.13614040613174438
-0.060286033898591995
0.2335328906774521
0.12078633159399033
-0.442935973405838
-0.6952160000801086
-0.32192525267601013
0.17131291329860687
0.08957105129957199
-0.5211775898933411
-0.378618448972702
-0.5814440846443176
0.014929618686437607
0.3822475075721741
0.14556768536567688
-0.37548011541366577
-1.0251474380493164
-0.6156874299049377
0.09608133882284164
0.5463241338729858
0.25685471296310425
-0.13295429944992065
0.3645005524158478
0.06328732520341873
-0.25559869408607483
0.37863272428512573
0.023961344733834267
0.11215650290250778
0.07455118000507355
-0.00019010386313311756
-0.03931242600083351
-0.02108997292816639
-0.09755084663629532
-0.03921489045023918
-0.01232578232884407
-0.10521853715181351
-0.16005335748195648
-0.1711733490228653
-0.07076811045408249
-0.05519748479127884
-0.24780192971229553
0.16670718789100647
-0.2429533153772354
0.19664093852043152
0.162397563457489
-0.23669907450675964
-0.007667300291359425
0.10114037990570068
0.33930742740631104
0.01654062792658806
-0.2003755271434784
-0.13764044642448425
-0.3952426314353943
0.06357719749212265
0.21891938149929047
0.028802737593650818
-0.11490695923566818
-0.4371189773082733
0.24738305807113647
0.20213863253593445
0.0261249877512455
-0.5592238903045654
-0.05048428103327751
0.29532933235168457
0.12038517743349075
-0.08437277376651764
-0.33082905411720276
0.19520515203475952
0.06295356154441833
0.02248527854681015
-0.31825003027915955
0.001050603692419827
0.10311276465654373
0.0972188338637352
-0.14370976388454437
-0.24952077865600586
0.029948804527521133
-0.1809798926115036
-0.13716301321983337
0.17282535135746002
-0.03469837084412575
-0.011387066915631294
-0.17322826385498047
0.029492221772670746
0.04013478755950928
-0.17324331402778625
-0.21830832958221436
-0.07328590750694275
0.25087207555770874
0.10794980823993683
-0.007149261888116598
-0.3286306858062744
0.16306203603744507
0.2813190817832947
-0.21535611152648926
-0.11147033423185349
0.27325764298439026
0.409908652305603
0.18237826228141785
-0.2158617377281189
-0.31102705001831055
-0.30158939957618713
0.11091691255569458
-0.24853515625
-0.9158104658126831
-0.27849477529525757
0.1282583773136139
0.33430999517440796
-0.30184659361839294
-0.15292800962924957
0.08824782818555832
0.4323015809059143
0.2187502086162567
-0.6157934069633484
-0.11867959052324295
0.156694233417511
0.10680710524320602
-0.20303794741630554
-0.18995806574821472
-0.0623878575861454
-0.04804343357682228
-0.30073246359825134
-0.19529856741428375
0.03199269622564316
0.3149973154067993
0.08740708231925964
-0.42877528071403503
-0.5992593765258789
0.10342127084732056
-0.011794292367994785
0.12059353291988373
-0.1191330999135971
-0.19664441049098969
0.18557941913604736
0.10507534444332123
0.04738529771566391
-0.6976669430732727
-0.08352150768041611
0.11208637058734894
0.24920052289962769
0.1851353645324707
-0.7085601091384888
0.09787174314260483
0.22643162310123444
0.035228829830884933
0.1741260290145874
0.04770537465810776
0.23724965751171112
0.08243109285831451
-0.02768193557858467
0.03461519256234169
0.25336018204689026
0.17307113111019135
-0.12187197059392929
-0.037424758076667786
-0.012834805063903332
0.09839261323213577
-0.13805878162384033
-0.204486683011055
-0.1743662804365158
0.04349720850586891
0.005529841408133507
-0.8704702854156494
-0.19399558007717133
0.033356260508298874
0.2378687709569931
-0.5668768882751465
-0.41241464018821716
-0.06581466645002365
0.0921584963798523
0.241789773106575
0.048839304596185684
0.09229062497615814
-0.01744719035923481
0.16903340816497803
0.014920584857463837
-0.16266761720180511
0.09377968311309814
0.1194206103682518
0.05912637710571289
0.12199980765581131
-0.1685934215784073
-0.12548638880252838
0.1280706822872162
0.3238660991191864
0.26538440585136414
0.11250951886177063
-0.2798888385295868
-0.14322763681411743
0.403617262840271
0.12142924964427948
-0.052097294479608536
-0.6827501058578491
-0.8099358081817627
0.3189431428909302
0.5063385367393494
0.20091025531291962
-0.16203323006629944
-0.9174395203590393
-0.3677017390727997
0.35043632984161377
-0.010526026599109173
-0.035076841711997986
0.1075509637594223
0.14017069339752197
0.12929005920886993
0.05184732377529144
-0.27009111642837524
0.07494381070137024
0.4963289797306061
0.1924588978290558
0.15213659405708313
0.019389817491173744
-0.4198274314403534
-0.1359911412000656
0.19806791841983795
0.16508278250694275
-0.059390172362327576
-0.5674969553947449
-0.39310315251350403
-0.05009334534406662
0.006379446014761925
-0.08130602538585663
-0.04180717095732689
-0.11957361549139023
-0.029064131900668144
-0.31408849358558655
-0.05862255394458771
-0.14775237441062927
0.32738128304481506
0.20056359469890594
-0.05900910496711731
-0.17878809571266174
0.05436968430876732
-0.003693303558975458
-0.029032131657004356
-0.1400323063135147
-0.3091539144515991
0.24264957010746002
0.047913890331983566
-0.16796045005321503
-0.04983516409993172
-0.23701642453670502
0.21210360527038574
0.4463684856891632
0.07721296697854996
0.05960648134350777
-0.2574440836906433
-0.3476428687572479
0.14167873561382294
0.07666890323162079
-0.10270316898822784
0.10151960700750351
0.12541285157203674
-0.13075359165668488
-0.13933874666690826
0.08186836540699005
0.10641423612833023
-0.12921454012393951
-0.30656322836875916
-0.019992221146821976
-0.08219729363918304
0.16159923374652863
0.43272238969802856
-0.4638674855232239
-0.3800869584083557
0.05235588550567627
0.12364824116230011
0.40958699584007263
0.038923632353544235
-0.42076146602630615
-0.03797244280576706
-0.12979701161384583
0.3792480230331421
0.32241055369377136
0.21784798800945282
-0.4319947063922882
0.20070771872997284
0.07614977657794952
-0.20389696955680847
0.017803668975830078
-0.09685297310352325
-0.11394445598125458
0.26067155599594116
-0.13052384555339813
-0.19264914095401764
0.1785133183002472
-0.14136673510074615
-0.08236481249332428
0.2756386995315552
-0.18298323452472687
0.07405488938093185
-0.1658855825662613
-0.9858401417732239
0.019517675042152405
0.16336669027805328
0.04892989248037338
-0.12241585552692413
-0.8478156328201294
-0.12933363020420074
0.0670466497540474
-0.3636544942855835
-0.2004142850637436
-0.18672403693199158
0.24079416692256927
0.4970800578594208
0.003009355627000332
-0.8508301377296448
-0.287651002407074
-0.14178228378295898
0.050017423927783966
0.010394222103059292
-1.2245322465896606
-0.6407838463783264
0.06926647573709488
-0.19914434850215912
-0.061827436089515686
-0.6946712732315063
-1.2034761905670166
0.2770237624645233
0.4845156967639923
0.1707449108362198
-0.015489909797906876
-0.26932063698768616
-0.517439067363739
0.07172656059265137
-0.009059597738087177
0.007790897507220507
0.05233312398195267
-0.09867282211780548
-0.12939274311065674
0.12747444212436676
0.22157198190689087
0.21536663174629211
0.07542446255683899
0.014144199900329113
-0.19058509171009064
-0.21702803671360016
-0.3576090931892395
0.07030465453863144
0.27922090888023376
0.11705058813095093
0.04447527602314949
-0.19623365998268127
-0.4649350047111511
-0.0007524164393544197
-0.16583223640918732
0.1914091408252716
0.203224778175354
-0.08746767044067383
-0.10862559825181961
0.34585627913475037
-0.4066225290298462
-0.24393649399280548
0.12826213240623474
0.12321259081363678
0.3782235383987427
0.0977630615234375
-0.2930157780647278
-0.39162322878837585
-0.37510910630226135
0.27255091071128845
0.13635481894016266
-0.10039990395307541
-0.3677067756652832
-0.19163307547569275
0.20567502081394196
0.22875984013080597
0.08745718002319336
0.17928948998451233
-0.2714357376098633
-0.16080984473228455
0.07129131257534027
0.4260154664516449
0.09142207354307175
0.11505742371082306
-0.22972147166728973
0.04923311248421669
-0.05603477358818054
-0.17275665700435638
-0.20876947045326233
-0.13729438185691833
0.05909949168562889
0.05937270447611809
0.25193342566490173
-0.009360856376588345
-0.2782227396965027
-0.010353663936257362
-0.020858466625213623
0.20780910551548004
0.03761263191699982
-0.13487233221530914
0.10475260764360428
-0.27635249495506287
-0.17667725682258606
0.07188087701797485
-0.1571405827999115
-0.05821894109249115
-0.276857852935791
0.06471245735883713
0.23240607976913452
-0.3081433176994324
-0.2855738401412964
-0.09211254864931107
0.01823461428284645
0.14354877173900604
0.1436052918434143
0.034584641456604004
-0.2600485682487488
-0.372487872838974
-0.2473575472831726
0.07098069041967392
0.02626427821815014
0.20856772363185883
0.13430646061897278
-0.11142192035913467
-0.08259525150060654
-0.2104138880968094
0.16999779641628265
0.1960175633430481
0.07348723709583282
0.018436942249536514
-0.14104892313480377
-0.2959020733833313
-0.06695052981376648
-0.4314223825931549
-0.6473876237869263
-0.2597433924674988
0.11999984830617905
0.07103659957647324
-0.20995770394802094
-0.4438648223876953
-0.727061927318573
-0.04156085103750229
0.3097611665725708
0.05514347180724144
-0.1982453316450119
-0.30169355869293213
-0.3815948963165283
0.029681364074349403
-0.050658248364925385
-0.16385895013809204
-0.22166778147220612
-0.18201187252998352
0.11776319146156311
0.16919158399105072
-0.1269087940454483
-0.3662446141242981
-0.036835409700870514
-0.05211738497018814
0.15458138287067413
0.010969952680170536
0.3812694847583771
0.47646865248680115
0.1982412338256836
-0.2640569806098938
-0.15922273695468903
-0.029713312163949013
0.29491040110588074
0.6081237196922302
0.3841201364994049
-0.15825533866882324
0.22484669089317322
-0.21297279000282288
-0.12489211559295654
0.39303410053253174
-0.055785827338695526
-0.10575169324874878
0.23364809155464172
-0.38948574662208557
-0.016799790784716606
0.1453409641981125
-0.04574168846011162
-0.011500202119350433
0.21635013818740845
-0.29031285643577576
