-0.07832638919353485
0.058577291667461395
0.1325627565383911
0.08253404498100281
0.1815997213125229
-0.02957211248576641
0.06374705582857132
-0.01900702342391014
0.02626655623316765
0.046214357018470764
-0.1139594167470932
-0.0527934804558754
0.0059470441192388535
-0.10383453965187073
0.028796732425689697
-0.20460245013237
-0.025247810408473015
0.10149715095758438
-0.024505894631147385
0.08102429658174515
-0.1728927195072174
-0.06334315985441208
-0.058152563869953156
0.019549008458852768
-0.05612235888838768
0.02527638152241707
-0.14225000143051147
0.046279437839984894
-0.004563203081488609
0.11177137494087219
-0.11924835294485092
-0.054943304508924484
-0.13094449043273926
-0.06849616765975952
-0.13745459914207458
-0.12531757354736328
0.07162107527256012
-0.21554166078567505
-0.15499275922775269
0.05734332650899887
0.17057611048221588
-0.1328956037759781
-0.2433105707168579
0.017221082001924515
-0.10536181181669235
0.12861056625843048
-0.06761086732149124
-0.11052397638559341
-0.0383419543504715
-0.08691881597042084
0.1335223913192749
-0.04596938192844391
-0.10532166808843613
0.19851040840148926
0.047405894845724106
0.09793433547019958
0.0989774614572525
-0.09189402312040329
-0.05147850885987282
-0.13298040628433228
-0.055016178637742996
-0.0959198921918869
-0.05698508396744728
0.27644097805023193
-0.002601615386083722
-0.035062920302152634
-0.08416128158569336
-0.0855095311999321
0.07561108469963074
-0.17600612342357635
-0.02746765874326229
-0.061157844960689545
0.004932119976729155
0.04295697063207626
0.02115168608725071
0.03527376428246498
-0.009190212935209274
0.0253354012966156
0.015098944306373596
-0.01451155636459589
-0.07905909419059753
-0.04210037365555763
0.17562241852283478
0.07657323032617569
