-0.02183573879301548
0.08960522711277008
0.11729665100574493
-0.8762534260749817
-0.19166199862957
-0.0960417166352272
0.2574123740196228
-0.5776386260986328
-0.14634625613689423
-0.3572550117969513
0.013469500467181206
-0.07555101066827774
0.016879694536328316
0.061627037823200226
0.016136180609464645
-0.004005018156021833
-0.08306670188903809
-0.10665404796600342
0.05558428168296814
0.169884592294693
0.1352776437997818
-0.06725794821977615
0.202041357755661
-0.46191585063934326
-0.45392313599586487
0.07975160330533981
0.14443127810955048
0.314156711101532
0.17979690432548523
0.4189031720161438
-0.012313531711697578
0.2606787085533142
-0.06679075211286545
-0.2517760097980499
0.21503907442092896
0.01304596196860075
-0.5761421322822571
-0.045399006456136703
-0.12330850958824158
-0.2521067261695862
0.22640393674373627
-0.4773474335670471
-0.4753527343273163
-0.11494190245866776
-0.022788500413298607
-0.05921059474349022
0.1973811388015747
-0.0017233757534995675
0.09626401215791702
-0.05788738280534744
0.13706667721271515
0.013139864429831505
-0.0453290231525898
-0.0017559091793373227
-0.21178896725177765
0.17693549394607544
-0.0925842747092247
-0.1483565717935562
0.2697523236274719
-0.3854237198829651
0.005283399485051632
-0.18438772857189178
-0.06807641685009003
0.1125008836388588
0.014378364197909832
-0.09025678783655167
-0.48243436217308044
-0.01896490715444088
0.1788543164730072
-0.5447273254394531
0.08672992885112762
0.07241254299879074
-0.0345628559589386
0.09595979005098343
0.02178250066936016
-0.03518997132778168
-0.043093275278806686
-0.038968525826931
-0.01926351524889469
0.02923373505473137
-0.096795953810215
0.1513054519891739
0.06397991627454758
-0.13064990937709808
0.006953014060854912
-0.01242799125611782
-0.37465351819992065
0.0887155532836914
0.1156376302242279
-0.2921357750892639
0.11478890478610992
0.5186265110969543
0.26956018805503845
0.07567329704761505
-0.02409687452018261
0.010815667919814587
0.013890423811972141
-0.09129194170236588
-0.06214398518204689
0.15538592636585236
-0.07437275350093842
0.11228004097938538
-0.10236941277980804
0.25928470492362976
0.06560733169317245
0.014425632543861866
-0.38168641924858093
0.1410330832004547
0.020588494837284088
-0.11725401133298874
0.08898620307445526
-0.19040560722351074
-0.16840860247612
0.24540534615516663
-0.1648573875427246
-0.6697866320610046
-0.07850660383701324
-0.24902251362800598
-0.33455753326416016
-0.1578856259584427
0.11212266236543655
-0.24895775318145752
-0.06220010295510292
0.1109234169125557
0.012179655954241753
-0.438950777053833
-0.26591968536376953
-0.057626381516456604
-0.18347927927970886
0.14107392728328705
-0.2322525531053543
-0.03209700062870979
0.14094169437885284
-0.03036530315876007
-0.19082824885845184
0.014566220343112946
0.010220319032669067
0.15989543497562408
0.2717047929763794
-0.33358222246170044
0.002603432396426797
0.02564404346048832
0.14782723784446716
-0.26341310143470764
-0.0030107197817415
-0.6729375720024109
0.10620132833719254
0.031150586903095245
-0.2375340610742569
0.003327466081827879
-0.2607603073120117
-0.01642262190580368
0.1094621941447258
0.3503152132034302
-0.6672637462615967
-0.045609619468450546
-0.17384006083011627
-0.02100534178316593
-0.03168764337897301
0.03776242583990097
-0.09463424235582352
-0.04546841233968735
-0.030773183330893517
-0.009335215203464031
-0.1325935572385788
0.134266197681427
0.05452559515833855
0.08434922993183136
-0.04800041764974594
-0.06593907624483109
0.09986569732427597
0.16546249389648438
-0.3913830816745758
-0.053420864045619965
0.04002983495593071
-0.5870488882064819
-0.35666581988334656
-0.048441581428050995
-0.16491380333900452
-0.032817862927913666
0.016368718817830086
-0.4332345426082611
-0.049384042620658875
0.11043623834848404
0.07433215528726578
-0.12454026192426682
0.01956786774098873
-0.22230879962444305
-0.06285721808671951
0.18578580021858215
0.30701783299446106
0.17131784558296204
0.054592106491327286
0.018924320116639137
0.1087656170129776
0.25387367606163025
-0.15923194587230682
0.2667047679424286
-0.07519424706697464
0.07527237385511398
-0.09771653264760971
0.09897179901599884
0.04332895949482918
0.1108822226524353
0.15153689682483673
-0.25239694118499756
0.028791386634111404
0.11397507041692734
-0.5297384858131409
0.2260911613702774
0.02003367617726326
-0.038109276443719864
0.3582112193107605
0.006290682591497898
-0.05537380278110504
-0.03759312257170677
0.35709887742996216
-0.014786546118557453
-0.1526145190000534
-0.05575333908200264
0.017776090651750565
-0.4340455234050751
0.07316019386053085
-0.4007968306541443
-0.6638932824134827
0.018924864009022713
0.2560654282569885
0.0815422534942627
0.213853657245636
0.006575481034815311
0.05195041745901108
-0.6181249618530273
0.15406261384487152
-0.0036353778559714556
-0.4176822900772095
-0.07349111139774323
-0.1843845099210739
-0.21665087342262268
-0.2714408040046692
0.18861791491508484
-0.1688520610332489
-0.25867971777915955
0.026417406275868416
0.183104008436203
-0.11635534465312958
-0.023755788803100586
0.059113163501024246
-0.0993809774518013
0.0389493890106678
-0.30726033449172974
-0.12513835728168488
0.060831815004348755
-0.10624413192272186
0.1711915135383606
0.0740329846739769
0.09680953621864319
-0.48490315675735474
0.0795806273818016
0.20307324826717377
0.32754525542259216
-0.01896844431757927
-0.6899480819702148
0.10628709197044373
0.0020631803199648857
-0.07764417678117752
0.05341159179806709
0.01958361268043518
0.15821833908557892
-0.07215510308742523
0.009916916489601135
0.06226632371544838
-0.26303157210350037
0.014860204420983791
-0.3118913769721985
-0.11523211002349854
-0.19251123070716858
0.07626515626907349
-0.0903937891125679
0.13757137954235077
-0.379671573638916
-0.2102847695350647
-0.5419051051139832
-0.05738120898604393
0.001033287146128714
-0.032461017370224
-0.2689417004585266
0.17570985853672028
0.10377524793148041
-0.38049083948135376
-0.3786872327327728
-0.13372932374477386
-0.6687226295471191
-0.30252960324287415
-0.11189331114292145
0.10289095342159271
0.054950784891843796
-0.27478116750717163
-0.35608258843421936
-0.02394452877342701
0.0010587030556052923
0.12061399966478348
0.08623075485229492
-0.34674277901649475
0.05313792824745178
-0.07460849732160568
0.2599334120750427
-0.1678762286901474
0.13606388866901398
0.18911446630954742
-0.20811395347118378
-0.043434493243694305
0.21353110671043396
0.309100478887558
0.13867683708667755
0.0011910899775102735
-0.3388662040233612
0.09681066125631332
-0.028441984206438065
0.2250114381313324
-0.006351216696202755
-0.8066972494125366
-0.28121328353881836
-0.32505398988723755
-0.44376522302627563
0.3140151798725128
0.30537348985671997
0.062404707074165344
0.13064731657505035
0.04492779076099396
-0.07362572848796844
-0.04731304943561554
0.07277211546897888
-0.10271564871072769
-0.2594570517539978
0.2349603921175003
-0.22920210659503937
-0.07112695276737213
0.12615300714969635
-0.4080095589160919
-0.2991642653942108
0.28930309414863586
-0.10817813128232956
-0.3340381681919098
-0.09904415160417557
-0.11762677878141403
0.07512035965919495
0.12673866748809814
-0.04502321407198906
0.0024658346083015203
0.046996843069791794
0.07169518619775772
-0.5095775127410889
0.019496457651257515
0.024649279192090034
-0.03886379301548004
-0.39412733912467957
-0.23071561753749847
0.06231264770030975
0.22157824039459229
0.008114516735076904
0.09582344442605972
-0.04887997731566429
-0.34502607583999634
0.08828131854534149
0.05101776123046875
-0.5774324536323547
0.001421145861968398
0.019211862236261368
-0.06944524496793747
0.16763050854206085
0.05971924215555191
0.04172056168317795
0.045882973819971085
0.15498310327529907
-0.1247088611125946
0.21169520914554596
-0.01941157877445221
0.1694345623254776
-0.01309877634048462
-0.07692340761423111
-0.39538219571113586
0.18190377950668335
-0.1563088446855545
-0.15374408662319183
0.1037040650844574
-0.10548123717308044
0.01746872439980507
0.01623007096350193
0.08485691249370575
-0.7020511627197266
-0.2130098193883896
0.06514804065227509
-0.37348735332489014
-0.04400681331753731
0.23756259679794312
-0.4078541398048401
-0.3106364607810974
-0.2899523973464966
0.029978185892105103
-0.06158292293548584
0.1214413121342659
-0.08868680894374847
0.021928982809185982
-0.06228574737906456
0.28471413254737854
0.1620878130197525
0.02428797446191311
-0.3093468248844147
0.12461107224225998
-0.28862136602401733
-0.07225857675075531
-0.4113275408744812
-0.09810423851013184
-0.015479005873203278
-0.019664812833070755
-0.1031477153301239
0.10858899354934692
-0.08183682709932327
-0.2829086482524872
0.20508703589439392
-0.11828561127185822
-0.19265620410442352
0.195590078830719
-0.0209213737398386
-0.26248699426651
0.11034445464611053
0.18761476874351501
0.1733427494764328
0.3002331554889679
0.03921833261847496
-0.4882143437862396
-0.09335802495479584
0.041394948959350586
-0.31496962904930115
-0.04579247161746025
0.08736343681812286
-0.02718496508896351
-0.39196160435676575
-0.018667735159397125
0.2973012328147888
-0.05278195068240166
-0.5384413003921509
-0.14209261536598206
0.016156958416104317
-0.5345515012741089
-0.11909857392311096
-0.1346919983625412
-0.2447075992822647
-0.23527942597866058
0.07900676131248474
-0.1646641194820404
0.11399179697036743
-0.2243693768978119
0.06445979326963425
-0.06986325234174728
-0.008530674502253532
0.20640377700328827
-0.14991682767868042
-0.11526055634021759
-0.09022678434848785
-0.1278999149799347
0.284785658121109
0.04948662966489792
0.06988157331943512
0.08327215164899826
-0.48136869072914124
0.0329606831073761
-0.09444960206747055
-0.5707923769950867
-0.055280353873968124
0.04390506446361542
-0.018990419805049896
0.0062352800741791725
0.14545203745365143
0.025096125900745392
0.20631840825080872
0.3130452036857605
-0.02819174714386463
-0.4074169993400574
0.14005184173583984
-0.1762595921754837
0.08367207646369934
0.04625739902257919
0.09309863299131393
0.03632490336894989
-0.04544596001505852
0.24284660816192627
-0.12559868395328522
-0.1161164715886116
0.055999573320150375
0.045749325305223465
0.1287149339914322
-0.03673471882939339
-0.16020186245441437
0.006368963047862053
-0.405597984790802
0.004544529598206282
0.03033326379954815
-0.05158564820885658
0.024069681763648987
-0.01611042581498623
-0.13387182354927063
0.10025599598884583
0.2552047371864319
-0.054773081094026566
0.15181036293506622
0.09836343675851822
-0.019609680399298668
-0.5965752005577087
-0.40081724524497986
0.03873690962791443
-0.5149421691894531
-0.655942440032959
0.24473978579044342
-0.03753603994846344
-0.07483553886413574
0.03789040446281433
0.05027391016483307
-0.020356465131044388
0.04028996080160141
-0.05878809466958046
-0.2083210051059723
-0.06539618968963623
0.2583347260951996
-0.06990723311901093
-0.21692416071891785
0.23563608527183533
0.08340509235858917
-0.4967602789402008
0.07062859833240509
-0.5954304337501526
-0.12856052815914154
0.12368053942918777
-0.48658424615859985
-0.027040472254157066
-0.3109080195426941
-0.11745234578847885
-0.3556402325630188
0.16808684170246124
-0.3375825881958008
-0.18408794701099396
-0.1097710132598877
-0.06170794740319252
0.1534663587808609
0.011233261786401272
-0.5239086747169495
-0.3753466308116913
-0.08780010044574738
-0.0986470952630043
0.17970044910907745
-0.15385988354682922
0.02838849648833275
-0.02073882520198822
-0.1136767789721489
0.051139552146196365
-0.08274427801370621
0.05450647324323654
0.0005686274380423129
-0.14117051661014557
-0.003346794517710805
-0.4308810830116272
0.043525759130716324
0.02715294621884823
0.13749852776527405
-0.3734844923019409
0.12038934975862503
0.10293763875961304
0.10417453199625015
-0.4676991105079651
0.021323520690202713
-0.017164964228868484
-0.06884665042161942
-0.048508793115615845
-0.3024742901325226
0.1836942434310913
0.15663832426071167
0.08830267190933228
-0.3618704378604889
-0.00554176839068532
0.11369979381561279
-0.013797709718346596
0.11488591134548187
-0.03926554694771767
0.14313170313835144
0.05507553368806839
0.212916761636734
-0.05444260314106941
0.27594560384750366
-0.04794596508145332
-0.5589510798454285
-0.16938552260398865
0.048030976206064224
-0.06874725222587585
-0.2690984010696411
0.009626711718738079
-0.2573115825653076
0.31746140122413635
-0.2728624939918518
-0.026173042133450508
0.07603957504034042
0.09218533337116241
0.2636255621910095
-0.029238078743219376
0.2603498101234436
0.05044363811612129
0.04949604347348213
-0.05941574275493622
-0.48457011580467224
-0.06512072682380676
0.2230512946844101
-0.4676710069179535
0.13964149355888367
0.157502219080925
-0.03865310177206993
0.0986257791519165
-0.17010939121246338
0.21994973719120026
0.18216821551322937
-0.067616768181324
0.11350809782743454
-0.21344923973083496
0.13348841667175293
-0.4198570251464844
-0.013966519385576248
-0.43643391132354736
-0.1612609475851059
0.0028726323507726192
0.23157630860805511
-0.019836144521832466
0.14088943600654602
0.19702298939228058
-0.06883157789707184
-0.07707768678665161
-0.18874211609363556
-0.046094369143247604
-0.12215548753738403
0.053450752049684525
-0.0126565583050251
-0.5008517503738403
0.04227454960346222
0.03672407194972038
-0.4345947504043579
-0.18249617516994476
0.1596844494342804
0.011525952257215977
-0.07013639062643051
0.020830409601330757
0.17313717305660248
0.07596035301685333
-0.0926750898361206
-0.021473778411746025
-0.09951746463775635
-0.34106796979904175
-0.012203933671116829
-0.01679966412484646
0.07839996367692947
-0.39758166670799255
0.39842161536216736
-0.5744122266769409
-0.5632510781288147
0.0469624325633049
-0.0843428447842598
-0.0007979254005476832
-0.04388047754764557
-0.030726565048098564
0.08199680596590042
-0.03234536945819855
-0.06592249870300293
0.15654364228248596
0.46590694785118103
0.14326800405979156
-0.4030585289001465
-0.04834328591823578
0.1857975870370865
0.22774921357631683
0.08555182814598083
0.027513541281223297
0.12936721742153168
-0.5736233592033386
-0.48766636848449707
-0.302092969417572
0.11505699902772903
-0.22761359810829163
0.026583870872855186
0.11051061749458313
-0.23714758455753326
-0.09499666094779968
-0.2574276328086853
-0.011409182101488113
0.1739109456539154
-0.019015097990632057
-0.0836229994893074
0.23070304095745087
0.06022212281823158
-0.47445014119148254
0.09885323792695999
0.11159095913171768
-0.05029425024986267
-0.011153493076562881
0.28196999430656433
0.10090721398591995
-0.2959902584552765
-0.08267945796251297
-0.556971549987793
-0.05320391058921814
0.18278825283050537
-0.2663204073905945
0.10915343463420868
-0.03583867847919464
-0.12295755743980408
-0.022341005504131317
-0.313485711812973
0.11482261121273041
-0.14797021448612213
-0.5054793357849121
0.0009471895173192024
-0.3793848156929016
0.061158254742622375
-0.020984506234526634
0.010226339101791382
-0.4535936117172241
-0.029705632477998734
0.17888444662094116
0.07729858160018921
-0.12265539914369583
0.15329071879386902
-0.2380962371826172
-0.3057820498943329
0.09951330721378326
-0.11546985059976578
-0.5771415829658508
-0.09287705272436142
0.24371592700481415
0.06913428008556366
-0.10580134391784668
0.1869242936372757
0.18054617941379547
-0.11830399185419083
0.14524468779563904
0.029279086738824844
-0.38160043954849243
-0.5175701975822449
-0.03476007655262947
0.026687368750572205
-0.06327103823423386
-0.12338476628065109
-0.0611535869538784
0.10958327353000641
-0.08629287779331207
-0.053342994302511215
0.0306682251393795
0.04196121543645859
0.018429342657327652
-0.46351754665374756
0.24138712882995605
-0.12694151699543
0.02740934118628502
0.07171126455068588
-0.3059532642364502
-0.497363805770874
0.14288297295570374
0.21341611444950104
-0.3398503065109253
0.11478116363286972
0.18194615840911865
-0.28943386673927307
0.24736052751541138
0.03720969334244728
-0.05892200022935867
0.039354853332042694
0.03227818384766579
-0.45677170157432556
-0.006749332416802645
0.1564629226922989
0.05561886355280876
-0.23532748222351074
-0.1531871110200882
0.04916920140385628
-0.4525665044784546
-0.20006200671195984
0.004080969374626875
-0.08933064341545105
0.19137509167194366
0.025301016867160797
-0.1527732014656067
-0.13116945326328278
0.00997062586247921
0.15889860689640045
-0.19447611272335052
-0.010426937602460384
0.1107906699180603
0.1329491138458252
0.15719273686408997
0.02129014953970909
-0.07426578551530838
-0.049942851066589355
0.20443595945835114
0.12991908192634583
0.2731272876262665
0.028074679896235466
-0.3356110155582428
0.2407708764076233
-0.02568477764725685
-0.02129387855529785
0.16213609278202057
-0.07900863885879517
0.05103114992380142
-0.0036334851756691933
0.007209571078419685
-0.06356387585401535
-0.3568168580532074
-0.16479912400245667
0.11410004645586014
-0.08520815521478653
-0.1307675540447235
-0.21281735599040985
-0.4344328045845032
0.06675621122121811
0.05461316183209419
-0.15742330253124237
0.2527068257331848
0.08782944828271866
0.12822727859020233
-0.1061587929725647
0.1730947345495224
0.3672254681587219
0.1969592273235321
0.12576130032539368
-0.5253536105155945
-0.40650343894958496
-0.1186627596616745
0.09105481952428818
-0.08375134319067001
-0.00552013935521245
0.0044565885327756405
-0.07757946848869324
0.0628647431731224
-0.1989133208990097
-0.4639926850795746
-0.834997832775116
