0.060666367411613464
-0.11946923285722733
0.039871811866760254
-0.20405429601669312
-0.4535504877567291
0.05124099925160408
0.004091191105544567
-0.6080818772315979
-0.4061015248298645
0.08409902453422546
0.04180947318673134
0.14575603604316711
-0.14813964068889618
0.29059550166130066
0.5589622259140015
-0.0268259160220623
0.5508118867874146
0.024216093122959137
0.23022229969501495
-0.031303517520427704
0.012982815504074097
0.22442258894443512
-0.10133061558008194
-0.014376617036759853
-0.14679935574531555
0.02044781483709812
-0.31424400210380554
-0.0009790175827220082
0.052509646862745285
0.06641776859760284
-0.5142108201980591
0.13363708555698395
0.3628212511539459
0.338721364736557
0.17407646775245667
0.058745671063661575
0.7213155031204224
0.42690181732177734
0.10250265896320343
-0.07329531013965607
0.19762688875198364
0.43348318338394165
-0.3076602518558502
-0.2667056918144226
-0.225020170211792
0.13814523816108704
-0.32963448762893677
-0.4953256845474243
-0.18001507222652435
-0.35419413447380066
-0.35028642416000366
0.0627281591296196
0.022504763677716255
0.052029650658369064
-0.1573779433965683
-0.01958736777305603
0.38613975048065186
-0.018308617174625397
-0.03130577877163887
-0.3915298283100128
-0.08712856471538544
0.11939019709825516
0.16214193403720856
-0.11594079434871674
-0.16478121280670166
0.036587223410606384
0.017476413398981094
0.06623195856809616
0.07760007679462433
-0.15740929543972015
0.12825573980808258
0.14251944422721863
0.15589362382888794
0.35003602504730225
0.142348974943161
0.13185200095176697
0.36896294355392456
0.4593690037727356
0.5301010608673096
0.22498540580272675
0.018337901681661606
0.34444287419319153
0.17702554166316986
0.341899573802948
0.008841444738209248
-0.3035189211368561
-0.07875112444162369
-0.4622616171836853
0.0016466379165649414
0.24881644546985626
-0.4196273386478424
-0.5807964205741882
-0.6387796998023987
-0.0997321680188179
0.20545847713947296
-0.6818133592605591
-0.32126063108444214
-0.0913439616560936
0.12358848750591278
0.12492168694734573
0.08101728558540344
0.07423970103263855
0.23349454998970032
-0.14490488171577454
-0.3659142255783081
0.1244048923254013
0.10629132390022278
0.13712553679943085
-0.30178773403167725
-0.29621338844299316
0.1669197529554367
0.18865284323692322
0.08701422810554504
-0.3100566864013672
-0.4824918806552887
0.10422743111848831
0.282114177942276
-0.05837787687778473
-0.3580264449119568
-0.10693330317735672
-0.08838862180709839
0.2671281397342682
0.06904949992895126
-0.16015073657035828
-0.18378333747386932
-0.08968152850866318
-0.12635084986686707
0.34749171137809753
0.3749564588069916
0.3886095881462097
-0.1560106724500656
-0.410032719373703
-0.28200849890708923
-0.2973577082157135
-0.24947142601013184
0.15806367993354797
-0.14463132619857788
-0.3451894223690033
-0.5793962478637695
-0.5271444320678711
0.28399333357810974
0.209883913397789
0.13596144318580627
-0.12839464843273163
-0.17800819873809814
0.053842656314373016
0.1753290891647339
0.27099138498306274
0.43053728342056274
0.3949093818664551
