0.03026326186954975
-0.041960012167692184
0.04018059000372887
-0.07393212616443634
0.0037886814679950476
-0.01960637979209423
0.03515084087848663
-0.06473081558942795
-0.050919387489557266
-0.03775251284241676
0.03613811358809471
-0.0694756954908371
-0.005942508578300476
-0.0518781840801239
0.03286410868167877
0.004719733260571957
0.03935252130031586
0.041273243725299835
-0.029702581465244293
0.0262325257062912
0.014845594763755798
0.017991594970226288
0.021785952150821686
-0.015074275434017181
-0.04579667001962662
-0.050341248512268066
0.025081448256969452
0.038381725549697876
-0.040014639496803284
-0.007265903055667877
-0.016781561076641083
0.05870412290096283
0.01166693028062582
0.029798895120620728
-0.045682284981012344
-0.04347670078277588
-0.05234329029917717
-0.047686897218227386
-0.043005239218473434
-0.06715518981218338
0.027937013655900955
0.02525356225669384
-0.0762709379196167
-0.03571609407663345
0.0014425944536924362
-0.03798694163560867
0.005512230563908815
-0.06057243421673775
-0.056186020374298096
-0.036138057708740234
-0.05417835712432861
-0.018197325989603996
0.028141068294644356
-0.007429299410432577
-0.07029716670513153
-0.03516491502523422
-0.004197259899228811
-0.008640493266284466
-0.06830351054668427
-0.042759981006383896
-0.0772852897644043
-0.050227221101522446
-0.016688531264662743
0.031129032373428345
-0.039820924401283264
-0.047757964581251144
0.02632320299744606
-0.021130703389644623
0.022161658853292465
-0.060668665915727615
-0.03463476896286011
-0.027788281440734863
-0.007022644858807325
-0.058672692626714706
0.009753471240401268
-0.06329109519720078
-0.017008153721690178
-0.04588859900832176
-0.06171339005231857
-0.018368154764175415
0.05440571904182434
-0.007434464991092682
0.0411420539021492
-0.02835233137011528
-0.05528964847326279
0.037983544170856476
0.024997267872095108
-0.07373618334531784
-0.024056395515799522
-0.01853097788989544
0.02261139079928398
-0.05691923946142197
0.023704174906015396
-0.023310687392950058
0.04264272749423981
-0.037092775106430054
-0.036017440259456635
-0.025888623669743538
-0.0074880290776491165
-0.047659166157245636
-0.06433245539665222
-0.08084125071763992
0.00869397446513176
-0.0431617833673954
0.04047369211912155
0.014247285202145576
-0.018647722899913788
0.0018439512932673097
-0.014907000586390495
0.024943768978118896
-0.07917208969593048
-0.04156289994716644
0.014341630041599274
-0.009886895306408405
-0.06359992921352386
0.019623057916760445
0.024788880720734596
-0.006939583923667669
-0.005536731798201799
-0.06093781068921089
-0.02311410941183567
0.01850859448313713
0.003751144977286458
0.017777934670448303
0.002811084734275937
-0.0020240074954926968
-0.04022201895713806
-0.009662260301411152
0.007456175982952118
-0.008135251700878143
0.011917397379875183
-0.026335425674915314
-0.049929119646549225
-0.008176572620868683
-0.00830896943807602
0.02350558154284954
-0.06412281841039658
0.011778490617871284
0.0008876262581907213
0.004707351792603731
0.0007007740787230432
-0.002733362140133977
-0.014413527213037014
-0.05572697892785072
-0.003452603705227375
-0.045952651649713516
0.015600014477968216
-0.04496282339096069
-0.012394473887979984
0.028471773490309715
0.005902589298784733
-0.046437595039606094
0.040861498564481735
0.012929662130773067
0.00569728622213006
0.02892589382827282
0.03676789999008179
-0.021090500056743622
-0.0764010101556778
-0.0445331409573555
-0.05750732868909836
0.0039869616739451885
-0.02656310796737671
-0.021432064473628998
0.017205629497766495
0.03562018647789955
-0.0639219656586647
-0.00106133078224957
0.009250247851014137
0.020911043509840965
-0.04980476573109627
0.024478532373905182
-0.0009071696549654007
-0.05257825553417206
-0.015497982501983643
-0.02941230498254299
0.001151880482211709
-0.08063780516386032
-0.012683101929724216
-0.028695017099380493
-0.04560958221554756
-0.06852571666240692
-0.05825924128293991
-0.045721862465143204
-0.019249513745307922
-0.038877569139003754
-0.05841704457998276
-0.052387088537216187
-0.06218678504228592
0.02018541470170021
0.04073880612850189
-0.03743729740381241
0.009876488707959652
-0.04052765667438507
-0.038910552859306335
-0.049875907599925995
-0.010022778064012527
-0.045089028775691986
-0.018763232976198196
0.0317118838429451
0.03524073585867882
-0.029393073171377182
-0.03233093395829201
-0.06048792600631714
-0.0596877783536911
-0.04589856415987015
-0.06824973970651627
0.012962186709046364
-0.05654464662075043
-0.028104664757847786
0.06198972463607788
-0.010798086412250996
-0.0748378336429596
0.005660521797835827
-0.042286861687898636
-0.0485871359705925
-0.023622868582606316
-0.014528139494359493
-0.0029931548051536083
0.011015346273779869
-0.05087314546108246
0.029355907812714577
-0.03967506065964699
-0.0304105207324028
0.0071523371152579784
0.007966222241520882
-0.059904906898736954
-0.0687691941857338
0.039911746978759766
-0.06025278568267822
-0.07532132416963577
-0.05326370149850845
0.015733124688267708
-0.08099570870399475
0.038345418870449066
-0.06123289093375206
-0.06337709724903107
0.028481245040893555
-0.05083202198147774
-0.05455877259373665
-0.04914350435137749
-0.04682644084095955
-0.02360987663269043
-0.05786104500293732
-0.06571158766746521
-0.003988288342952728
-0.06500298529863358
-0.07325360924005508
0.008460504934191704
-0.013491258025169373
-0.05725943669676781
-0.004003823734819889
-0.05795660614967346
-0.025724265724420547
-0.05892428755760193
-0.06898882985115051
-0.37349778413772583
-0.05844002962112427
0.3526601791381836
0.25483980774879456
0.21767657995224
0.09817876666784286
-0.27893349528312683
-0.24438922107219696
0.0007102243835106492
0.011860985308885574
-0.1532583236694336
0.15514305233955383
0.3744080066680908
-0.49696457386016846
0.14885199069976807
0.05559716001152992
0.010905012488365173
0.04406142234802246
-0.0553293451666832
0.048964858055114746
-0.0025167316198349
-0.044117897748947144
-0.027640730142593384
-0.058786869049072266
-0.0102987140417099
-0.06162913143634796
-0.031540900468826294
0.019638925790786743
0.06225357949733734
0.01898188143968582
0.03226027637720108
0.04261045530438423
-0.07482504099607468
-0.22863805294036865
-0.08532138913869858
-0.0841422975063324
0.05002627149224281
0.09017162024974823
-0.24268917739391327
0.036799680441617966
-0.027094125747680664
-0.2479012906551361
-0.12444183975458145
0.04849637299776077
-0.1842806488275528
0.14576347172260284
0.21790602803230286
0.1191968321800232
-0.1125199943780899
-0.2106551229953766
0.3202609717845917
-0.32559874653816223
-0.1333492547273636
0.08477432280778885
0.1098145991563797
-0.07519831508398056
-0.09210271388292313
0.11506357043981552
-0.05300147458910942
-0.158963143825531
-0.2313791662454605
0.14311090111732483
-0.005397044587880373
0.027417510747909546
-0.037517983466386795
-0.19500207901000977
-0.061262454837560654
-0.27366963028907776
0.0910509005188942
0.0952019989490509
0.09066668897867203
0.12360408902168274
0.048971518874168396
0.13080115616321564
0.08042135834693909
0.07775302231311798
-0.05604274570941925
-0.07432636618614197
0.04422080144286156
0.09030584990978241
-0.32073038816452026
-0.29410696029663086
-0.7659008502960205
-0.5886879563331604
0.022822674363851547
0.007205994799733162
-0.009911305271089077
-0.5020371079444885
-0.14219674468040466
0.08185693621635437
0.056398678570985794
-0.06885243207216263
0.19919724762439728
0.35191208124160767
0.10201805830001831
-0.1714228242635727
0.3218013346195221
0.21538414061069489
0.19405363500118256
0.1260128915309906
-0.06617741286754608
-0.03634548559784889
0.31226643919944763
0.12601220607757568
0.1530923843383789
0.08132423460483551
-0.09301816672086716
0.002939098048955202
-0.12492214143276215
-0.15985043346881866
0.0011158344568684697
0.11860890686511993
0.02356603369116783
-0.3364439904689789
-0.49165281653404236
-0.38392046093940735
0.053840529173612595
-0.23996767401695251
0.20830154418945312
0.1466560661792755
-0.06812823563814163
0.05042770132422447
0.12072315812110901
0.15392358601093292
0.14776842296123505
0.12835904955863953
0.09940488636493683
-0.22629955410957336
-0.022015584632754326
-0.14141300320625305
-0.3366108536720276
-0.41518065333366394
-0.17436707019805908
0.030273113399744034
-0.1491485834121704
-0.27622127532958984
0.02910003438591957
0.06681208312511444
0.052543096244335175
-0.034190647304058075
0.21913151443004608
0.3074723780155182
0.02469497360289097
0.05399877205491066
0.302176833152771
0.006424987222999334
0.11136163026094437
0.07271397113800049
-0.4360375702381134
-0.32210299372673035
-0.07591930031776428
-0.027049921452999115
-0.2503865659236908
-0.15228818356990814
-0.2759883403778076
-0.14830635488033295
0.06947547942399979
0.040541887283325195
0.013228673487901688
-0.02333665080368519
0.11507401615381241
-0.05480567738413811
0.4159010648727417
0.24691414833068848
0.024891791865229607
-0.029807457700371742
0.13640287518501282
0.197053000330925
0.11861136555671692
0.012546253390610218
-0.18668225407600403
-0.3082902729511261
-0.05600371211767197
-0.02086447738111019
-0.04469731077551842
0.22817733883857727
0.0919257253408432
0.26009392738342285
0.2655036449432373
0.5513854026794434
0.0910220518708229
0.2402592897415161
-0.30227887630462646
0.02487410046160221
0.2714807391166687
0.07231971621513367
0.0043009198270738125
-0.06918156892061234
0.030206210911273956
-0.391902357339859
-0.033768974244594574
0.16858692467212677
0.009505543857812881
-0.10816006362438202
0.02217102237045765
0.10576976835727692
0.15685692429542542
0.04666254669427872
0.26034194231033325
-0.037481408566236496
0.2467060536146164
0.21190707385540009
0.11511904746294022
-0.2001962512731552
0.34579241275787354
-0.024509992450475693
-0.20880411565303802
-0.24329811334609985
0.42401444911956787
0.032017581164836884
0.41007062792778015
0.4627535343170166
0.16215866804122925
0.1369360089302063
0.1163865476846695
0.3782181739807129
0.03398235887289047
0.1297784447669983
-0.14900770783424377
-0.22933442890644073
-0.17040808498859406
-0.22162027657032013
-0.24005791544914246
-0.10067223012447357
-0.312886506319046
-0.16595254838466644
-0.4615226686000824
0.16106677055358887
-0.018244337290525436
0.1349981725215912
-0.03417998179793358
0.32185983657836914
0.1391458809375763
0.008525485172867775
0.1707749366760254
-0.009666550904512405
0.12931610643863678
-0.04701828211545944
-0.2399015873670578
0.006121561396867037
-0.0022074319422245026
-0.010723184794187546
-0.1233975738286972
0.04553131014108658
-0.22027036547660828
-0.024908149614930153
0.09774701297283173
-0.018910277634859085
0.14078909158706665
-0.037525396794080734
0.028575465083122253
-0.08505020290613174
-0.02576010674238205
0.0005864731501787901
0.07414872199296951
0.09245659410953522
0.19965329766273499
-0.0577615387737751
-0.0508418008685112
0.05445132032036781
0.4355126917362213
0.10973762720823288
0.2693793475627899
-0.2530200481414795
0.14208795130252838
-0.0775950625538826
-0.18737518787384033
0.25500622391700745
-0.15151254832744598
0.0662844330072403
-0.27819469571113586
0.24665096402168274
0.020856022834777832
0.002324528992176056
0.02995108813047409
-0.026838883757591248
-0.024073690176010132
0.022810012102127075
-0.018505975604057312
-0.0413326695561409
0.02505660057067871
-0.010151229798793793
0.0004736185073852539
0.016162976622581482
-0.023458056151866913
-0.04812055081129074
-0.04520197957754135
-0.0010191439650952816
0.14310692250728607
-0.12046210467815399
0.11706878989934921
0.027721760794520378
-0.05676207318902016
0.30017057061195374
0.016509633511304855
0.019633155316114426
-0.38575655221939087
-0.06643535941839218
-0.062160830944776535
-0.36241304874420166
-0.2707412540912628
0.14447537064552307
0.30780938267707825
0.4325321614742279
0.22837647795677185
0.18793870508670807
0.015874367207288742
0.1928001493215561
0.29561886191368103
-0.1050940528512001
-0.07422609627246857
0.09710061550140381
-0.08285494148731232
-0.4643491804599762
-0.1673469990491867
0.35014116764068604
-0.4655277132987976
0.09285421669483185
0.0941476970911026
0.22622118890285492
0.4198865592479706
0.12692905962467194
0.09535901248455048
0.01825064979493618
-0.009251988492906094
0.1371488720178604
-0.10271648317575455
0.10165862739086151
0.39381974935531616
0.27695026993751526
0.07956378161907196
-0.06758464127779007
-0.21859467029571533
0.2269206941127777
0.08279667049646378
-0.1358458548784256
0.16459795832633972
0.14187783002853394
-0.12822802364826202
-0.08100682497024536
0.17059555649757385
-0.27472302317619324
-0.025211941450834274
0.4832395315170288
-0.15808236598968506
-0.10964109748601913
-0.2909771502017975
0.14775177836418152
-0.06365383416414261
0.17895428836345673
-0.042631324380636215
-0.07374395430088043
0.17947550117969513
-0.013970937579870224
-0.14337597787380219
-0.5354906916618347
-0.0648036077618599
0.038129013031721115
0.09070869535207748
0.15571607649326324
0.32823073863983154
0.14044320583343506
0.17504335939884186
-0.13797233998775482
-0.17563818395137787
-0.09478504210710526
0.09916126728057861
0.30040013790130615
0.005666482262313366
0.005219926126301289
0.05859650671482086
0.11240732669830322
-0.009610816836357117
0.023157626390457153
0.3392922282218933
0.18431152403354645
-0.02114243060350418
0.033760637044906616
0.09325239807367325
0.20856304466724396
-0.05368110164999962
0.07582976669073105
-0.21621845662593842
-0.12861672043800354
0.18883879482746124
0.09377457946538925
0.13850802183151245
0.03743648901581764
0.047059863805770874
-0.21586373448371887
-0.21911154687404633
-0.09164298325777054
-0.1553921401500702
-0.07480039447546005
-0.04792826995253563
0.0012432425282895565
-0.04961662366986275
0.1211656853556633
-0.08626318722963333
-0.23954635858535767
0.020364120602607727
0.12027738988399506
0.1691015213727951
-0.060434382408857346
0.1969287097454071
0.13383938372135162
0.0327761173248291
-0.28001388907432556
0.05788479745388031
0.03258955851197243
0.07232114672660828
0.022328171879053116
-0.30238625407218933
-0.2826773524284363
0.20126131176948547
0.4965875446796417
0.1074805036187172
-0.08290690183639526
0.00805682223290205
-0.12189581990242004
0.1935524344444275
0.07069698721170425
-0.11655157059431076
0.1533478945493698
0.2682945132255554
0.20863105356693268
0.20555126667022705
-0.35498103499412537
-0.3959125876426697
-0.35357600450515747
-0.05382084473967552
0.15387658774852753
0.07818011194467545
-0.3230896294116974
-0.05966310575604439
-0.03882695734500885
0.13897758722305298
0.20600159466266632
0.009868248365819454
0.03424442559480667
0.27616333961486816
0.166140615940094
-0.08799302577972412
-0.5002156496047974
-0.24429452419281006
-0.3489190340042114
-0.3822396993637085
-0.059826575219631195
-0.12771348655223846
-0.2811594009399414
-0.162053644657135
0.019558439031243324
0.16160233318805695
-0.029109153896570206
0.2817228138446808
0.19129693508148193
-0.14815516769886017
-0.1198277547955513
0.28132665157318115
0.12338680028915405
0.41759249567985535
0.39322102069854736
0.11243335157632828
-0.20454055070877075
-0.028285333886742592
-0.00867161899805069
-0.378133088350296
-0.39304864406585693
0.19137254357337952
0.16619589924812317
0.1059623584151268
-0.1062883734703064
0.06335806101560593
-0.007717029191553593
-0.26403966546058655
-0.16543114185333252
0.1444547474384308
-0.2798789441585541
-0.5338271260261536
-0.1488315463066101
-0.01724805124104023
-0.14008557796478271
0.09950941056013107
-0.20828351378440857
0.2674660384654999
0.07122805714607239
-0.4138922691345215
-0.233982652425766
0.10392289608716965
-0.1339910328388214
-0.13108208775520325
-0.15226157009601593
0.4553690254688263
0.361518532037735
-0.16677692532539368
-0.6792179346084595
0.1436593383550644
0.13702699542045593
-0.10914471745491028
-0.0023970892652869225
0.016010215505957603
0.1663333624601364
0.11005089432001114
0.12335620820522308
0.03788864612579346
0.27264782786369324
0.29143646359443665
0.5781309604644775
-0.1699606031179428
0.10178939253091812
0.25617748498916626
0.218695729970932
-0.119599349796772
-0.2378242015838623
0.27237871289253235
-0.3155198395252228
-0.07200198620557785
0.45760849118232727
0.13616451621055603
0.02332821488380432
-0.06139564886689186
-0.2190253734588623
-0.03291504457592964
0.17469137907028198
-0.543761670589447
-0.5794824957847595
-0.38220056891441345
-0.2606836259365082
0.06029018014669418
-0.0010638970416039228
0.04848508536815643
0.059041209518909454
0.013855889439582825
-0.03283119946718216
0.03581937402486801
-0.04155663400888443
0.03571247309446335
0.020571857690811157
-0.003234565258026123
0.0077232541516423225
-0.02556343376636505
-0.03210046887397766
-0.055279262363910675
-0.028295131400227547
0.1517934799194336
0.04565274342894554
-0.15476275980472565
-0.0017887532012537122
-0.009899841621518135
0.08675690740346909
0.09109236299991608
-0.2527162730693817
0.005820104386657476
0.15224285423755646
0.20760561525821686
0.2808058261871338
-0.030057163909077644
0.25505727529525757
0.2873912453651428
-0.05463039502501488
0.36433249711990356
0.15664580464363098
0.17520010471343994
0.11076521128416061
0.7260486483573914
0.25839558243751526
0.016654977574944496
0.22430646419525146
-0.04294811934232712
-0.038517482578754425
0.004943083040416241
0.36066949367523193
-0.05600568652153015
0.020815826952457428
-0.08078832924365997
0.019111189991235733
-0.03566848114132881
-0.0879499763250351
0.11284063756465912
-0.4473246932029724
0.08901111781597137
0.34245532751083374
-0.16091090440750122
0.21083436906337738
0.4584815204143524
0.3305968642234802
0.17289908230304718
0.03355523571372032
-0.3128712475299835
-0.18221725523471832
-0.08703749626874924
0.08622292429208755
0.2357962429523468
0.17989489436149597
-0.03157094866037369
-0.002507896162569523
0.39112505316734314
-0.02229880541563034
-0.28633686900138855
-0.0951530709862709
-0.21162529289722443
-0.06520751118659973
-0.11628105491399765
-0.03665042296051979
0.24609056115150452
0.213891863822937
0.008989619091153145
-0.11609993129968643
-0.14530566334724426
0.34234973788261414
0.1294708102941513
0.09434067457914352
-0.28092625737190247
-0.18372152745723724
0.2432476282119751
-0.2840379774570465
0.48300355672836304
0.1551576405763626
-0.21153053641319275
0.011402680538594723
0.02924342267215252
0.11783671379089355
0.3559657335281372
0.1372690498828888
-0.08567008376121521
-0.059605468064546585
-0.045627616345882416
-0.20243053138256073
0.17129120230674744
-0.2492237091064453
-0.04232845455408096
0.10731221735477448
0.22061556577682495
0.2537252902984619
-0.18656080961227417
0.09935469925403595
-0.17049406468868256
0.04785970225930214
0.13594070076942444
0.13787515461444855
0.2394731640815735
0.5021774768829346
-0.15972456336021423
-0.1602085381746292
0.5269244909286499
-0.16069361567497253
-0.5012619495391846
-0.45134228467941284
-0.03242158889770508
0.03613540157675743
0.17240093648433685
-0.20004944503307343
-0.03618302941322327
0.09096073359251022
0.014754542149603367
-0.13056614995002747
0.41708818078041077
0.0862562507390976
-0.13897204399108887
-0.0896175354719162
0.5990407466888428
0.21415254473686218
0.13103972375392914
-0.026911064982414246
0.3011704683303833
0.013802701607346535
0.3068423271179199
0.47006484866142273
-0.257182776927948
-0.3650333881378174
0.0594218373298645
0.02072753570973873
0.0538228340446949
0.050306953489780426
0.017320901155471802
-0.0340915285050869
-0.04782743752002716
-0.2264208048582077
0.10919902473688126
0.052009083330631256
0.053662654012441635
-0.014579057693481445
-0.37896233797073364
-0.2619929611682892
-0.057411424815654755
0.16254641115665436
0.10848557949066162
0.26865801215171814
-0.26123690605163574
-0.13309751451015472
0.44101226329803467
0.06091614067554474
-0.23095253109931946
-0.11101764440536499
-0.15099072456359863
-0.47258883714675903
0.025916218757629395
0.2755880057811737
0.030385270714759827
-0.053493987768888474
-0.05923933908343315
-0.1699376404285431
-0.16798904538154602
0.3360089659690857
0.2811416685581207
-0.0821903645992279
-0.1658492237329483
-0.10979923605918884
-0.32111504673957825
0.10761433094739914
0.15484364330768585
0.20051799714565277
-0.0006224984535947442
0.00022977954358793795
0.18190881609916687
-0.205699160695076
0.13587839901447296
0.1201048195362091
-0.2817043662071228
-0.06581059098243713
-0.4998284578323364
-0.010527627542614937
0.02862127684056759
0.40950167179107666
-0.4972216486930847
-0.22851189970970154
0.09637188911437988
-0.21356074512004852
-0.05166744813323021
-0.1983046680688858
-0.05039995536208153
-0.43638351559638977
0.18882018327713013
-0.061316464096307755
-0.11350174993276596
0.018126092851161957
-0.14235100150108337
-0.014259562827646732
0.04075956344604492
-0.3417331576347351
-0.28590014576911926
4.551664460450411e-06
-0.1881030797958374
0.19193030893802643
-0.018816957250237465
0.07585585862398148
0.17149777710437775
-0.3227875232696533
0.1857384741306305
0.0137370890006423
0.05139259248971939
-0.008069201372563839
0.10384074598550797
-0.07824908941984177
0.06183655187487602
-0.3152116537094116
-0.008752343244850636
0.1520090401172638
0.0395345613360405
-0.3337554931640625
-0.07167691737413406
0.4607663154602051
0.3868900537490845
0.30923986434936523
-0.274935245513916
0.1808774471282959
-0.061251651495695114
0.26643651723861694
0.13439807295799255
0.37067553400993347
-0.028925975784659386
0.24837368726730347
0.1167919784784317
-0.07873155176639557
-0.23404307663440704
0.04865989461541176
-0.08907130360603333
0.0819968581199646
0.3068578839302063
-0.14012928307056427
0.7479941844940186
0.14357122778892517
0.2646118104457855
0.3028964698314667
0.034825779497623444
-0.026208382099866867
-0.018428444862365723
0.016362644731998444
-0.03801534324884415
0.04987914860248566
0.021508172154426575
0.009691692888736725
-0.043902985751628876
-0.04044453054666519
0.048904262483119965
0.03823746740818024
0.008557334542274475
0.04021958261728287
-0.028382837772369385
0.011192605830729008
-0.35225003957748413
0.14387062191963196
-0.14027497172355652
-0.3258979022502899
0.1398485153913498
0.07640601694583893
0.1849944293498993
-0.09184697270393372
0.4383358061313629
0.0996871292591095
-0.1121666207909584
-0.39262449741363525
0.18507120013237
-0.16886523365974426
-0.1036069393157959
0.12248140573501587
0.03840678185224533
-0.19930638372898102
-0.353027880191803
-0.45608198642730713
0.017329799011349678
-0.07408035546541214
0.24954786896705627
-0.26164016127586365
-0.04464394226670265
-0.13674354553222656
-0.23770977556705475
-0.47215208411216736
0.08300435543060303
-0.43199706077575684
0.26993328332901
-0.024730876088142395
-0.13112089037895203
-0.10167837888002396
0.12682108581066132
-0.18941351771354675
0.009589933790266514
0.19912922382354736
0.049683794379234314
-0.4333800971508026
-0.0943269282579422
0.15623712539672852
-0.19412249326705933
-0.10694921016693115
-0.09581106156110764
-0.078239306807518
0.06928694248199463
0.15059348940849304
-0.9054333567619324
-0.44014525413513184
-1.0993952751159668
-0.8589012026786804
0.0019289489137008786
-0.14851069450378418
-0.1228458434343338
-0.18052248656749725
0.13380834460258484
0.36121320724487305
0.49755343794822693
0.20999298989772797
0.15351572632789612
-0.08002643287181854
-0.013428553007543087
-0.05497998371720314
-0.13154824078083038
-0.09931503981351852
0.12516248226165771
0.18090614676475525
0.4750392436981201
0.22325399518013
-0.07756587862968445
-0.09033345431089401
0.2350510209798813
-0.06196315959095955
-0.3040119707584381
-0.6957123279571533
0.2557254433631897
-0.24251560866832733
-0.33973342180252075
-0.4423752427101135
-0.47644028067588806
-0.33409199118614197
-0.4652763903141022
0.1852903515100479
0.29398298263549805
0.268775999546051
-0.10870988667011261
0.42758047580718994
0.5271381735801697
0.4133765995502472
0.19083285331726074
-0.011399011127650738
-0.09728675335645676
-0.21519243717193604
-0.07044494152069092
-0.04221562668681145
-0.2808528244495392
-0.383475124835968
-0.5712223052978516
-0.4001597464084625
-0.6447091698646545
-0.1253633201122284
-0.12675681710243225
0.1422632932662964
0.24930106103420258
0.08357983082532883
0.1582135409116745
-0.03280915692448616
0.19531451165676117
-0.030429281294345856
0.012223155237734318
-0.0003032248350791633
-0.33870819211006165
0.11117760092020035
0.23102885484695435
0.0784158781170845
-0.3059760332107544
0.17293034493923187
-0.07541035860776901
-0.03814725950360298
0.005065725184977055
-0.13782691955566406
-0.20583972334861755
-0.44304031133651733
-0.0440511479973793
0.13672764599323273
-0.23543840646743774
-0.28444063663482666
0.015722239390015602
0.18119186162948608
0.025058912113308907
0.03413128852844238
0.3297024071216583
-0.0015493883984163404
-0.05141463875770569
-0.061787497252225876
0.33301401138305664
-0.05432260408997536
-0.26344630122184753
0.3996640741825104
0.22563736140727997
0.12273851037025452
-0.29459282755851746
0.11218324303627014
0.14568115770816803
0.18934281170368195
0.011226208880543709
0.2271968275308609
0.009989621117711067
-0.08398018777370453
0.35328251123428345
-0.01682651787996292
-0.03141763061285019
-0.0011433711042627692
0.16530749201774597
0.17851586639881134
0.3884994685649872
0.2729475200176239
0.43948808312416077
0.26312679052352905
-0.28632503747940063
-0.25503724813461304
0.11779513210058212
-0.042450062930583954
0.027215290814638138
0.18895696103572845
-0.20252828299999237
-0.18877099454402924
0.3109741508960724
0.20298676192760468
-0.20848259329795837
0.019882166758179665
-0.05723252147436142
0.006306510418653488
0.10138679295778275
0.005812687799334526
-0.1853620707988739
-0.04966012388467789
0.07634734362363815
0.3141101002693176
-0.13148969411849976
-0.05568746477365494
-0.10742277652025223
0.23476755619049072
0.17622010409832
0.25440433621406555
0.2827073037624359
-0.230734720826149
0.015466720797121525
0.20830026268959045
0.11268617957830429
0.03764597699046135
-0.015063007362186909
0.42974671721458435
0.17200498282909393
0.46841225028038025
0.028906740248203278
0.24422194063663483
0.20763427019119263
-0.12609253823757172
0.048796676099300385
0.15666145086288452
0.032862111926078796
0.6292471885681152
-0.18918952345848083
0.04881364479660988
0.2232900857925415
0.3263695538043976
0.08842916041612625
0.06582585722208023
-0.18725767731666565
-0.22356460988521576
-0.2859289348125458
-0.28887075185775757
-0.4017758071422577
-0.4540611207485199
0.0843198373913765
-0.04215571656823158
-0.018975475803017616
-0.4641164541244507
0.07637817412614822
0.08300917595624924
-0.15842881798744202
-0.20161376893520355
-0.14060518145561218
-0.1130460649728775
-0.2314806431531906
-0.34982556104660034
-0.3455616235733032
0.09394710510969162
-0.18404218554496765
-0.15153610706329346
0.023437457159161568
-0.1873479038476944
-0.06639741361141205
0.23610499501228333
0.4777131676673889
0.3115990459918976
0.5595816969871521
0.5816519856452942
-0.04917449504137039
-0.04797857254743576
0.0073343440890312195
-0.04877694696187973
0.012994743883609772
0.03181930631399155
-0.028543733060359955
0.024695418775081635
-0.012456193566322327
-0.0005500540137290955
0.03977220505475998
-0.018986180424690247
0.0008522644639015198
0.04426102340221405
0.05811449885368347
0.07298851758241653
-0.32118505239486694
-0.27399399876594543
0.25575804710388184
0.20525485277175903
-0.13961002230644226
0.16697590053081512
0.04905679076910019
0.020052706822752953
-0.36405831575393677
-0.3416038453578949
0.019847193732857704
0.2234480082988739
-0.4725552797317505
-0.08954458683729172
0.27535656094551086
0.06705113500356674
-0.31568434834480286
-0.12622202932834625
-0.12675344944000244
-0.012788419611752033
0.14996697008609772
0.07231077551841736
-0.18048454821109772
-0.4153575897216797
-0.18015161156654358
0.11028027534484863
0.12494830787181854
0.011866439133882523
-0.09157544374465942
0.2191373109817505
-0.0815444067120552
-0.14394454658031464
0.3640647530555725
0.25185301899909973
0.02939964458346367
0.008405460976064205
-0.1683056503534317
-0.10870435833930969
-0.009659443981945515
0.07184433192014694
0.12422389537096024
-0.19208839535713196
-0.016063759103417397
0.04663347452878952
-0.1942352056503296
-0.002028232906013727
0.24846121668815613
-0.09657880663871765
-0.09204655140638351
-0.2907046675682068
-0.19491563737392426
-0.06300102919340134
-0.3466198444366455
-0.24267840385437012
0.07340307533740997
0.13393555581569672
0.13717518746852875
0.13109616935253143
0.013307194225490093
0.022846084088087082
0.2780309319496155
0.24779607355594635
0.0694832131266594
0.055892858654260635
-0.007760976441204548
-0.5170796513557434
0.1615537703037262
-0.09756574779748917
-0.24756468832492828
0.1607218086719513
0.22806653380393982
0.07867985963821411
-0.024954386055469513
0.18323321640491486
0.010633422993123531
0.12335391342639923
-0.4442332088947296
-0.2588794529438019
0.11627016961574554
0.00594307528808713
0.398672491312027
0.028489822521805763
-0.03047923929989338
0.08893278241157532
-0.01658179983496666
0.16948822140693665
0.06992674618959427
0.32304635643959045
0.009820614941418171
-0.03150521591305733
-0.2519988417625427
-0.44830477237701416
-0.02433665469288826
0.04514146223664284
-0.033072952181100845
-0.20893289148807526
0.03251350298523903
-0.3174484372138977
0.08761842548847198
0.07516460120677948
0.07200571894645691
0.1867709904909134
-0.07693016529083252
0.06656277179718018
-0.20841534435749054
-0.050284791737794876
-0.16293995082378387
-0.09445622563362122
0.22268995642662048
0.02944359928369522
-0.19323061406612396
-0.03676643967628479
-0.4550303518772125
-0.25046518445014954
-0.03359883651137352
0.08515962213277817
0.05981931835412979
-0.3035394549369812
-0.14506757259368896
-0.17719338834285736
0.4742341637611389
0.18042966723442078
0.011784590780735016
-0.020836738869547844
0.06533590704202652
0.35902994871139526
-0.06176690384745598
0.05469512939453125
0.09228084236383438
-0.35007134079933167
-0.4385627806186676
-0.8376798629760742
-0.15733975172042847
-0.050320159643888474
-0.26422184705734253
0.1614914983510971
0.3465222418308258
0.02822152152657509
-0.12340418249368668
-0.22431406378746033
-0.04597218707203865
-0.05273197591304779
0.03782803192734718
0.05391458049416542
-0.2235158085823059
-0.10669374465942383
-0.1614491492509842
-0.20887604355812073
-0.30512765049934387
0.17944642901420593
0.01294360775500536
-0.18057657778263092
0.15271317958831787
-0.039660051465034485
0.022187689319252968
0.25850939750671387
-0.18785247206687927
-0.36537209153175354
0.026433734223246574
0.1507442146539688
-0.4690665602684021
-0.22039489448070526
-0.22000738978385925
-0.02054867334663868
0.19616371393203735
-0.09357134997844696
-0.1532912701368332
0.08423629403114319
-0.10015850514173508
0.16107985377311707
-0.0001225366140715778
-0.14036165177822113
0.42377644777297974
0.003113025799393654
-0.35692381858825684
-0.23517532646656036
0.01239471510052681
-0.13383935391902924
-0.15671619772911072
-0.3373955488204956
-0.2360745668411255
-0.2389736771583557
0.17877095937728882
-0.30653467774391174
-0.23634976148605347
0.04940138757228851
-0.07479215413331985
-0.11196378618478775
0.1318930983543396
-0.025399131700396538
-0.21215210855007172
0.13028143346309662
0.26366591453552246
0.4257139265537262
0.17171144485473633
-0.18336103856563568
0.20422881841659546
0.24110281467437744
0.06926853954792023
0.1271483451128006
-0.05307844281196594
-0.21560296416282654
0.06812350451946259
0.16404172778129578
0.25713416934013367
-0.2569732666015625
-0.21761254966259003
-0.04224100708961487
-0.3489447236061096
0.07112254202365875
0.25266143679618835
0.07377547025680542
0.3392869830131531
0.47376009821891785
-0.02912094257771969
-0.0989316925406456
0.2114020586013794
0.18768511712551117
0.060550276190042496
0.07784728705883026
0.11081372201442719
0.10938989371061325
-0.15382607281208038
-0.27626293897628784
-0.2337229698896408
0.19580088555812836
0.02152443118393421
0.26168951392173767
-0.06100909039378166
-0.035349179059267044
0.13168585300445557
0.16463729739189148
-0.19105127453804016
0.18292853236198425
-0.1555274873971939
-0.056747931987047195
-0.3775133192539215
0.241111621260643
0.09102916717529297
0.06415452063083649
0.045976705849170685
-0.03351212292909622
0.04479245841503143
0.008662097156047821
0.00984654575586319
0.057100556790828705
-0.001677386462688446
-0.04282773286104202
0.05614013224840164
-0.05924561619758606
0.06034758687019348
0.032638221979141235
-0.0034343749284744263
-0.024333074688911438
0.04837265610694885
0.008956079371273518
0.2672072947025299
0.19604438543319702
-0.2326194792985916
-0.10446089506149292
0.14001981914043427
0.11782321333885193
-0.18515628576278687
-0.18073783814907074
0.005901737604290247
0.16028249263763428
0.26990383863449097
0.11410829424858093
0.10494264960289001
0.13032382726669312
0.05154271423816681
-0.06346195936203003
-0.13509884476661682
0.23484870791435242
-0.07306523621082306
0.23391251266002655
-0.2401866465806961
-0.08902198821306229
-0.427162230014801
0.15799902379512787
-0.05247465893626213
-0.10629168152809143
0.17120373249053955
0.4276665151119232
-0.4610167443752289
-0.06975023448467255
0.18155881762504578
0.5181261301040649
-0.1755225658416748
0.12874917685985565
-0.04969647526741028
0.09259583055973053
0.0042907618917524815
-0.18604570627212524
-0.006644249893724918
-0.15242712199687958
0.23548701405525208
-0.11689527332782745
-0.46951746940612793
-0.3634430170059204
0.2092479020357132
0.19850267469882965
0.021058637648820877
-0.2766876816749573
-0.24664092063903809
0.04095055162906647
0.060289543122053146
0.03341317176818848
0.028836030513048172
-0.08245658129453659
0.06707382202148438
0.19860273599624634
0.01894231140613556
-0.23768356442451477
-0.3568321764469147
-0.10358215868473053
0.27527955174446106
0.012215440161526203
0.01634507067501545
0.13675326108932495
0.020128929987549782
-0.012211811728775501
0.08059854805469513
0.012149238958954811
0.005813255440443754
0.0803598165512085
-0.36388853192329407
-0.12488525360822678
-0.2787122428417206
-0.41095536947250366
-0.026207147166132927
0.048081379383802414
-0.2904229164123535
0.13984833657741547
0.08533003181219101
0.18578317761421204
-0.32965773344039917
-0.14937017858028412
0.04115341603755951
0.20110656321048737
0.04066295176744461
-0.022154591977596283
0.0497039258480072
0.06284096837043762
-0.3854655623435974
-0.8373168110847473
-0.24448829889297485
0.1128733903169632
-0.02254137396812439
0.09780223667621613
0.06618893146514893
-0.21791209280490875
-0.29099181294441223
-0.03246720880270004
-0.22410519421100616
-0.05083124712109566
0.07743387669324875
-0.08854319155216217
0.055647481232881546
0.4295424520969391
-0.22512954473495483
-0.5506852865219116
-0.32726502418518066
0.08656611293554306
-0.10035167634487152
0.04059350863099098
0.14468425512313843
-0.15746822953224182
0.35209593176841736
0.060946885496377945
-0.17539313435554504
0.04514537751674652
-0.05655299127101898
0.08237896859645844
-0.43707653880119324
0.05522968992590904
0.13359981775283813
0.1887635588645935
0.3537239730358124
-0.12914229929447174
0.4926300644874573
0.35534024238586426
0.4756713807582855
-0.018890831619501114
-0.018039520829916
0.17005422711372375
0.18547579646110535
0.2779600918292999
-0.21785572171211243
0.2421145737171173
-0.19586648046970367
-0.23233231902122498
-0.4020029604434967
-0.2061607986688614
-0.04188912734389305
0.15020643174648285
-0.47843796014785767
-0.039623428136110306
-0.11170747876167297
0.3985585868358612
-0.15270546078681946
-0.1428157091140747
0.03696645051240921
-0.05960780009627342
-0.06755015254020691
0.12527115643024445
0.16280630230903625
-0.03583817183971405
-0.11701370775699615
0.1831224262714386
0.044840749353170395
-0.24999862909317017
0.0025704968720674515
0.13420137763023376
-0.3139285147190094
-0.823674738407135
-0.25152507424354553
0.21845556795597076
0.5128321051597595
0.1273689866065979
-0.1995295137166977
-0.3526979684829712
-0.13288040459156036
0.12530116736888885
-0.06742160022258759
-0.18655940890312195
0.03669995442032814
-0.21218366920948029
0.27171561121940613
0.08932396024465561
0.43195053935050964
-0.2960732877254486
-0.008147784508764744
0.10642533004283905
0.2363891452550888
-0.08705171942710876
0.1835918128490448
0.1691724807024002
0.1966346651315689
0.03487710654735565
0.024900183081626892
-0.07112021744251251
0.06345431506633759
0.05815925449132919
-0.06898470222949982
0.008133833296597004
-0.056246984750032425
-0.3316253423690796
-0.5491405129432678
-0.4122460186481476
0.6270044445991516
0.02426854707300663
-0.25933223962783813
-0.22501949965953827
0.3306400179862976
-0.05397897586226463
-0.1563710868358612
0.3122715950012207
0.014077580533921719
-0.1801212728023529
0.026054121553897858
0.13838781416416168
-0.09135060757398605
-0.7283636331558228
-0.017123742029070854
-0.041339728981256485
-0.09249868243932724
0.10774124413728714
-0.2812385559082031
-0.16291745007038116
0.08716627955436707
0.3577706813812256
0.028010781854391098
-0.15403853356838226
-0.10342592000961304
-0.09574098140001297
0.10818590968847275
-0.1152593344449997
-0.07806810736656189
-0.34581229090690613
-0.43971049785614014
-0.44316980242729187
0.0021186345256865025
-0.2851021885871887
-0.38004064559936523
-0.1561984121799469
-0.28453728556632996
0.04309626668691635
-0.2479320764541626
0.28936806321144104
0.17244818806648254
0.21253396570682526
0.7307701706886292
-0.09650298953056335
0.02547832392156124
-0.24946561455726624
-0.05768292397260666
-0.010068655014038086
0.04773859679698944
0.0008594468235969543
-0.02703651785850525
-0.020789235830307007
-0.052799977362155914
-0.036820828914642334
-0.016027182340621948
-0.04087286442518234
0.020941950380802155
0.04427850991487503
0.038083091378211975
-0.021899737417697906
0.0123625248670578
-0.009196162223815918
0.021592259407043457
0.0129915876314044
0.22512458264827728
0.14169442653656006
-0.10402857512235641
0.020959796383976936
-0.04983597248792648
-0.10974537581205368
-0.4272032380104065
-0.06055200845003128
0.20044414699077606
0.09707079827785492
-0.13445913791656494
0.07369354367256165
0.38087689876556396
0.2570756673812866
-0.013097516261041164
0.08411122858524323
0.1950007677078247
-0.33037635684013367
0.06316333264112473
0.12476642429828644
-0.5138171315193176
0.2674407660961151
0.6495343446731567
0.43183791637420654
0.08951099961996078
0.20108351111412048
0.2720118463039398
-0.033569492399692535
0.25837618112564087
0.10304023325443268
-0.04043704271316528
0.060978032648563385
0.12262935191392899
-0.11203353106975555
-0.5708950757980347
-0.19937919080257416
0.1126595214009285
0.0011891293106600642
0.07871606200933456
-0.17514568567276
-0.1361253559589386
-0.08011852204799652
0.36814504861831665
-0.00910088513046503
0.24993687868118286
0.07720766961574554
-0.0734734833240509
0.3039635121822357
0.2775384485721588
-0.13778552412986755
0.07900016009807587
0.063106469810009
0.22732394933700562
0.2208273559808731
0.16865916550159454
0.04819725081324577
0.10470341145992279
-0.00812512170523405
0.2144821286201477
0.07554853707551956
0.21238252520561218
-0.0529385469853878
-0.1712402105331421
0.2665843069553375
-0.07539521157741547
0.1594192087650299
0.1022278442978859
-0.08702804893255234
0.14220012724399567
-0.05487208440899849
-0.6731542944908142
-0.35205429792404175
-0.4365333616733551
-0.235017329454422
-0.43911105394363403
0.06807408481836319
0.050536077469587326
0.26295170187950134
0.14145365357398987
0.045170120894908905
-0.15459153056144714
-0.15092243254184723
0.2328605353832245
0.1646467000246048
-0.0032166035380214453
0.2130281776189804
-0.2593969702720642
0.012208634987473488
0.10254612565040588
0.04292028769850731
-0.016462277621030807
-0.0348002091050148
0.051402498036623
0.14141066372394562
0.1064835786819458
0.20525260269641876
-0.044893864542245865
0.04936007782816887
0.3353129029273987
-0.21266025304794312
-0.25151899456977844
0.2765156924724579
0.10339042544364929
-0.0812702551484108
-0.03177846595644951
-0.1606343686580658
0.009153234772384167
-0.14476145803928375
0.09594567865133286
0.16816671192646027
0.062072768807411194
-0.2877805233001709
-0.26946282386779785
-0.1326894462108612
-0.12573744356632233
-0.31833940744400024
-0.17403340339660645
-0.21930555999279022
0.48909398913383484
0.06487574428319931
-0.15998171269893646
0.03462734445929527
0.5805749297142029
0.01537205372005701
0.15520435571670532
0.3773723244667053
-0.3016112446784973
-0.4408888816833496
-0.11297979950904846
0.46385467052459717
-0.07708889245986938
0.22099198400974274
-0.11095824092626572
-0.18495509028434753
-0.4580588936805725
-0.6091359853744507
-0.7465344667434692
-0.11916588991880417
-0.5431370735168457
0.17736458778381348
0.35315942764282227
0.27411654591560364
0.33023926615715027
0.1956893354654312
0.24649132788181305
0.18126139044761658
-0.2240331470966339
-0.07984945178031921
-0.10089103132486343
-0.42213040590286255
-0.5002869963645935
-0.43072065711021423
-0.03542202338576317
0.14284184575080872
0.13868817687034607
-0.47396448254585266
0.15645785629749298
0.44832128286361694
0.1108282133936882
-0.1848566085100174
-0.08636977523565292
0.11306377500295639
-0.1334666758775711
0.18451081216335297
0.06565126776695251
-0.09535010159015656
-0.12460312247276306
-0.26672273874282837
0.1062663123011589
-0.033589188009500504
0.2829245924949646
0.10067068785429001
0.23311607539653778
-0.09291958808898926
0.132525235414505
-0.06295828521251678
0.3128112554550171
0.02509279176592827
-0.4134138524532318
-0.41940754652023315
-0.07953830808401108
-0.062382977455854416
-1.013165831565857
-0.8382761478424072
-0.18177123367786407
-0.057657722383737564
-0.40563204884529114
-0.6967439651489258
-0.1693640500307083
0.3282637596130371
0.0031319146510213614
0.01979171857237816
-0.12216721475124359
-0.4048742651939392
0.057740870863199234
0.11020238697528839
0.234952911734581
0.0030545282643288374
-0.351709246635437
-0.10013396292924881
0.26230713725090027
-0.0272540170699358
0.220260351896286
-0.45092135667800903
-0.4434642493724823
-0.19523803889751434
0.12419223040342331
-0.2245572954416275
-0.26402518153190613
-0.04176625981926918
-0.34657686948776245
-0.19829373061656952
0.12081912904977798
-0.03529064729809761
0.0844576507806778
0.20783306658267975
0.20225249230861664
0.11170199513435364
0.10494128614664078
-0.13378006219863892
0.24380311369895935
0.023567887023091316
0.059695251286029816
0.2438393086194992
0.27169308066368103
-0.1578754037618637
-0.04454391822218895
-0.35531342029571533
-0.03945382311940193
0.02739378623664379
0.09907592833042145
-0.10487553477287292
0.23233166337013245
-0.4263685643672943
-0.18091700971126556
0.21602320671081543
0.08595119416713715
-0.2051749974489212
0.05843391269445419
0.01917661353945732
0.021710209548473358
-0.006221607327461243
-0.039640314877033234
0.038954876363277435
-0.007163733243942261
0.016577258706092834
0.04124211519956589
-0.01282086968421936
-0.01425548642873764
0.009306400083005428
-0.03675895184278488
0.028890252113342285
0.04261830449104309
-0.05219683051109314
-0.24452245235443115
0.25826296210289
-0.07645038515329361
-0.06852128356695175
0.3117525279521942
0.22784486413002014
-0.01591830886900425
0.08164255321025848
-0.05565284937620163
-0.029586967080831528
-0.0031376772094517946
0.1997283399105072
0.3185485303401947
-0.3973051905632019
-0.7618054747581482
-0.6514512300491333
0.10792714357376099
0.3983372747898102
0.29362285137176514
0.5121279954910278
0.20208942890167236
-0.004844306968152523
-0.16472390294075012
0.00012003575102426112
0.2826502323150635
-0.17463722825050354
0.29782092571258545
0.3108561635017395
0.3105105459690094
-0.2569132149219513
0.17746001482009888
-0.2044517695903778
-0.15897172689437866
0.19290947914123535
0.12993629276752472
0.47001516819000244
-0.13209202885627747
0.15117782354354858
-0.14994117617607117
-0.019539250060915947
-0.14196941256523132
-0.08818622678518295
-0.2260381132364273
-0.07604480534791946
0.20919056236743927
-0.14667688310146332
-0.5095721483230591
-0.5417904257774353
-0.011289739981293678
-0.032789237797260284
0.17997078597545624
0.12174200266599655
0.0092626279219985
0.1066393032670021
-0.023831533268094063
0.3532254099845886
0.32520386576652527
0.13200743496418
0.050492774695158005
0.057851094752550125
0.05524296313524246
-0.15606585144996643
0.1485736072063446
-0.0359870120882988
-0.6027102470397949
-0.04056363180279732
0.17794466018676758
0.1855006217956543
-0.11782946437597275
0.2016390562057495
-0.08900608122348785
-0.057883959263563156
0.22997255623340607
-0.0009140289039351046
-0.09926280379295349
0.08275295048952103
0.369863897562027
-0.057541050016880035
-0.23478879034519196
-0.17539726197719574
-0.15952375531196594
-0.10369376093149185
0.27464768290519714
0.4068682789802551
-0.03283918276429176
-0.018839864060282707
-0.06144315004348755
0.21160225570201874
0.190329909324646
-0.09463637322187424
-0.13519392907619476
-0.16158132255077362
-0.4290705621242523
-0.30648449063301086
-0.12070179730653763
-0.16462647914886475
0.06973594427108765
-0.10119925439357758
0.1871376931667328
0.004491433035582304
0.09172021597623825
0.10241595655679703
-0.044098738580942154
0.2284124493598938
0.3398323953151703
-0.016102919355034828
-0.18783530592918396
-0.016331832855939865
-0.27043476700782776
-0.3008304834365845
0.04105140268802643
0.06457778066396713
0.18047139048576355
0.17081807553768158
0.08114053308963776
0.11454210430383682
-0.007472625467926264
-0.12665097415447235
-0.3980187773704529
0.16704437136650085
-0.29159775376319885
-0.11805553734302521
-0.12915773689746857
-0.1792551577091217
0.14605405926704407
-0.5433893799781799
-0.052782684564590454
-0.06587810069322586
-0.3447338044643402
0.19754332304000854
0.20649616420269012
-0.05979571491479874
0.09045511484146118
0.05004379525780678
-0.003521217964589596
-0.6548249125480652
0.1850156933069229
0.01801399700343609
0.008784488774836063
0.29724055528640747
0.3934810161590576
0.29329976439476013
0.1868078112602234
-0.014151399955153465
-0.2999259829521179
-0.057668305933475494
-0.09722054749727249
-0.07072240114212036
0.19560620188713074
0.10742759704589844
0.24474744498729706
0.019078684970736504
0.18496759235858917
0.20401932299137115
-0.21981197595596313
-0.22696010768413544
0.5018264055252075
0.49430224299430847
0.04903203248977661
-0.3356058895587921
0.34700316190719604
-0.1435662806034088
-0.15569625794887543
-0.14493125677108765
-0.4692799150943756
-0.33894044160842896
-0.36239269375801086
-0.42032814025878906
0.3692862391471863
0.042857468128204346
-0.05419377610087395
0.07942213863134384
-0.5593557953834534
-0.04298629239201546
-0.20781490206718445
-0.46753495931625366
-0.8375483751296997
-0.569546639919281
0.046915069222450256
0.08704065531492233
-0.24884943664073944
0.2600571811199188
0.025812380015850067
0.040858104825019836
0.44425246119499207
0.3749764859676361
0.13487155735492706
-0.07203443348407745
0.6554231643676758
0.4519493877887726
0.26781773567199707
-0.3249247074127197
-0.057904910296201706
-0.21960124373435974
-0.19702483713626862
-0.08919758349657059
-0.3031970262527466
-0.2971818447113037
-0.11520183831453323
-0.03610699996352196
-0.26826003193855286
-0.17981714010238647
-0.3283424973487854
0.08504211902618408
-0.38418999314308167
-0.0344889760017395
-0.1384071558713913
0.22763735055923462
0.3012307584285736
0.0629052147269249
-0.03247334808111191
-0.12854847311973572
0.1490257978439331
-0.26009660959243774
-0.11974944919347763
0.2331232726573944
0.029038608074188232
-0.3613133132457733
-0.6953911781311035
-0.10180574655532837
0.4285220503807068
0.026459254324436188
-0.15895043313503265
0.005735153332352638
-0.11571300774812698
0.09751935303211212
0.08367219567298889
0.058858346194028854
0.020401161164045334
0.7101974487304688
0.03534117713570595
-0.12442844361066818
0.06006617099046707
0.2820536494255066
0.10755907744169235
0.3215511441230774
-0.12271300703287125
-0.05322026461362839
0.2088438868522644
-0.0315164290368557
0.017799973487854004
0.04262322559952736
-0.014894835650920868
-0.04159385710954666
0.009909138083457947
0.007192358374595642
-0.05304042994976044
-0.028830915689468384
-0.054879359900951385
-0.018755607306957245
-0.024769529700279236
0.05729903280735016
-0.012739583849906921
0.013773337006568909
-0.0020609572529792786
0.046448640525341034
-0.18744221329689026
-0.31705793738365173
-0.00765334302559495
-0.06459146738052368
-0.29001954197883606
-0.21977552771568298
0.018514374271035194
0.03011075034737587
0.2038465291261673
-0.24712659418582916
-0.0024715308099985123
0.15816237032413483
-0.23104797303676605
0.0750601515173912
0.12319661676883698
0.21496078372001648
-0.4222174286842346
-0.30114826560020447
0.2680110037326813
0.34491434693336487
-0.30915793776512146
0.002077836077660322
-0.0005272389389574528
0.15769042074680328
-0.2619762420654297
0.17218118906021118
-0.04561297595500946
-0.1947861909866333
-0.12615865468978882
-0.317018061876297
-0.30050814151763916
-0.07939626276493073
-0.2649215757846832
-0.45258551836013794
-0.20863741636276245
0.17441876232624054
-0.3687570095062256
-0.1359092891216278
-0.04479089751839638
0.21127864718437195
-0.0713469460606575
-0.2590068280696869
-0.24518586695194244
-0.05644577741622925
-0.48377639055252075
0.07899288833141327
0.010424725711345673
0.26275506615638733
-0.03368852287530899
-0.14023149013519287
0.030825966969132423
0.371103972196579
-0.1926441192626953
-0.11800773441791534
0.004445880185812712
0.23101817071437836
0.011968931183218956
0.12464515119791031
-0.03445982187986374
-0.07470373809337616
-0.4620925784111023
-0.20615211129188538
-0.11708077788352966
-0.07910904288291931
-0.1440141648054123
-0.20806023478507996
0.172170028090477
0.15312379598617554
-0.3719539940357208
0.1857486069202423
0.21936467289924622
-0.26620951294898987
-0.0358290895819664
0.08126020431518555
-0.07463932037353516
0.20877808332443237
-0.1806010603904724
-0.24385379254817963
0.01573670655488968
-0.1402888149023056
-0.298766165971756
-0.2298717349767685
0.0848596841096878
0.4656238555908203
0.09893963485956192
0.10355169326066971
0.23535460233688354
0.24409854412078857
-0.27031829953193665
0.21823345124721527
-0.04379374161362648
-0.1466239094734192
-0.2080903947353363
0.03509782254695892
0.12316135317087173
0.10005654394626617
-0.232985720038414
-0.2648787796497345
-0.4850218892097473
0.11682821065187454
0.07375358790159225
-0.24022147059440613
-0.38469281792640686
-0.02780488319694996
-0.10992439091205597
-0.07919401675462723
0.01724892668426037
-0.10403120517730713
-0.23423296213150024
0.14150094985961914
0.16637252271175385
-0.1254500448703766
-0.23370863497257233
-0.1078924685716629
0.015168207697570324
0.045476775616407394
-0.33737167716026306
-0.1169995665550232
0.07830597460269928
0.15459471940994263
-0.19543716311454773
-0.2677215039730072
0.05526784807443619
0.33991187810897827
0.06172437593340874
-0.007217602804303169
-0.00574696809053421
-0.05199267715215683
-0.15231817960739136
0.05647784844040871
0.28353506326675415
0.6936444044113159
-0.11281032860279083
0.23159484565258026
0.046821463853120804
-0.38551345467567444
0.15558862686157227
0.30905917286872864
-0.19134242832660675
0.06010967865586281
-0.06284552067518234
-0.23199504613876343
0.008649185299873352
-0.29251745343208313
0.48723724484443665
0.4094978868961334
0.012264695018529892
-0.5346734523773193
0.17248569428920746
0.19079147279262543
-0.06816989183425903
-0.3739962577819824
0.2202908992767334
0.1329513043165207
-0.09815779328346252
-0.01862705685198307
0.43735477328300476
-0.09939771890640259
-0.18437711894512177
0.21802173554897308
0.0039711520075798035
-0.4271589517593384
-0.37187737226486206
-0.23278039693832397
0.09109179675579071
0.027933644130825996
0.0695493221282959
-0.3942403793334961
0.005910860374569893
-0.1100117489695549
-0.12927593290805817
-0.08395561575889587
-0.12554171681404114
0.14821572601795197
-0.08002690225839615
0.3007756471633911
0.37716665863990784
0.10676400363445282
0.36495885252952576
-0.12561969459056854
-0.019178299233317375
-0.04805557057261467
0.46416693925857544
-0.3645542562007904
-0.21378707885742188
0.39435917139053345
-0.013210834935307503
-0.20759199559688568
-0.06847859174013138
0.32209309935569763
-0.36864909529685974
-0.03281402960419655
0.15553903579711914
0.04060879722237587
-0.6759185194969177
-0.025862528011202812
0.15755106508731842
-0.12516359984874725
0.04414326325058937
-0.22476089000701904
0.18166522681713104
-0.03435434401035309
0.27890700101852417
-0.09141791611909866
0.34675273299217224
-0.007375628687441349
0.2101011574268341
0.11647816747426987
-0.5832211971282959
-0.3235906958580017
-0.3367311954498291
-0.1701580137014389
0.06445226073265076
-0.23136089742183685
-0.025145474821329117
0.035725731402635574
0.045513153076171875
-0.23112371563911438
0.2681339383125305
0.07918237149715424
0.094852514564991
-0.014092489145696163
-0.07197713106870651
0.009450939483940601
-0.2504650056362152
0.00375057733617723
0.03638229891657829
0.23943139612674713
-0.32737794518470764
-0.19457924365997314
-0.1733447015285492
0.09608224034309387
-0.49504345655441284
-0.46899569034576416
0.11897439509630203
-0.15862461924552917
0.2959568500518799
-0.0950295701622963
0.07238293439149857
0.10515522211790085
-0.011755138635635376
-0.03540069982409477
0.01394006609916687
0.04436221718788147
-0.016846932470798492
0.022569745779037476
0.05825793743133545
0.012749232351779938
0.015163294970989227
0.015703894197940826
0.05925554037094116
-0.04561242833733559
-0.025613650679588318
0.06214400380849838
-0.04819244146347046
-0.06914785504341125
0.08435429632663727
0.07983282953500748
0.28304314613342285
0.049368444830179214
-0.5301331281661987
-0.499859094619751
0.022916655987501144
0.2767842710018158
0.026203472167253494
-0.1930229216814041
0.21199369430541992
0.17125879228115082
0.09865514189004898
0.0019359627040103078
-0.22607110440731049
-0.21035021543502808
0.16251040995121002
-0.09171140193939209
-0.02878323197364807
-0.36270657181739807
-0.3402131497859955
0.0869220495223999
0.28323623538017273
0.12153217941522598
0.06870517879724503
0.36517444252967834
0.2498912662267685
-0.14558835327625275
0.30677735805511475
-0.06461632996797562
-0.22864356637001038
0.04237201064825058
-0.04389457404613495
0.19484800100326538
0.2635347247123718
0.013418796472251415
0.3941692113876343
-0.16552940011024475
0.10005498677492142
0.34274253249168396
-0.4367819130420685
-0.37254664301872253
-0.018933827057480812
0.10912037640810013
0.04890548437833786
-0.2198261171579361
-0.3014473021030426
-0.018532002344727516
0.09674844890832901
-0.27149781584739685
-0.2665482461452484
-0.16327214241027832
-0.18620136380195618
-0.038230620324611664
0.05963493511080742
-0.28017792105674744
-0.24360385537147522
0.1929195374250412
0.18656344711780548
-0.29681360721588135
-0.1258172243833542
-0.013567820191383362
0.032860349863767624
-0.0151988435536623
0.15118998289108276
0.0255955308675766
0.11801699548959732
0.23555973172187805
0.0333532877266407
-0.16762296855449677
0.18257753551006317
0.2172727882862091
-0.56504887342453
-0.12565568089485168
0.06296529620885849
0.2702006697654724
-0.02324710041284561
0.21298368275165558
-0.05210567265748978
-0.19462968409061432
0.30601993203163147
-0.06681538373231888
-0.2049882560968399
-0.15467272698879242
0.10222959518432617
0.07643713057041168
0.15923482179641724
-0.0033617913722991943
0.05818162485957146
0.21666046977043152
0.004130280110985041
-0.31954509019851685
0.13188178837299347
-0.1255112886428833
0.08462853729724884
-0.24494856595993042
0.053923893719911575
-0.18658830225467682
-0.25800520181655884
-0.3568401336669922
-0.08485278487205505
0.11128754913806915
-0.11172036081552505
-0.1970641165971756
-0.028172235935926437
0.30522826313972473
0.18656161427497864
-0.06756377220153809
0.1590861976146698
0.021116890013217926
-0.020625310018658638
0.0517253540456295
-0.12482215464115143
-0.2131231278181076
0.028336236253380775
0.19034886360168457
0.056654803454875946
-0.29377126693725586
-0.18075552582740784
0.13715754449367523
-0.20103655755519867
-0.1392364203929901
-0.22326040267944336
-0.09100949764251709
0.4064033031463623
-0.03352915123105049
-0.5636349320411682
-0.262736052274704
-0.024547027423977852
0.029597964137792587
-0.24068951606750488
-0.332330584526062
-0.14069226384162903
-0.22798480093479156
-0.0191594660282135
0.0030044575687497854
-0.3676482141017914
-0.2325877994298935
-0.31206244230270386
0.18855179846286774
0.23220515251159668
0.21722154319286346
-0.025158843025565147
0.149354949593544
-0.3517400920391083
-0.2102556675672531
0.21729449927806854
0.16824570298194885
-0.19471387565135956
-0.21745015680789948
-0.22125482559204102
-0.22177614271640778
-0.21711279451847076
-0.22091801464557648
-0.01770179346203804
0.3021107017993927
-0.22257572412490845
0.1936064213514328
0.42747214436531067
0.12853717803955078
-0.22929532825946808
-0.18291209638118744
0.11099525541067123
0.06016705557703972
0.18538755178451538
0.08992625027894974
0.20223937928676605
-0.31316429376602173
0.29937630891799927
0.32140758633613586
-0.03638996556401253
-0.45961371064186096
0.07642392069101334
-0.4896833896636963
-0.548145592212677
-0.1601106822490692
0.11194620281457901
-0.45040157437324524
0.21344777941703796
0.3247123062610626
0.1024131029844284
-0.20345823466777802
0.048757683485746384
-0.1947670727968216
-0.1779434233903885
-0.12222430109977722
0.02193930186331272
-0.03660373389720917
-0.5850855112075806
-0.03766224533319473
0.3727007508277893
0.0017596950056031346
-0.16491521894931793
-0.18641024827957153
-0.18831108510494232
0.2196924239397049
0.08482682704925537
0.20450325310230255
0.013921395875513554
-0.02968687377870083
-0.0861973837018013
0.1832343339920044
-0.0472421795129776
0.17374016344547272
-0.6122129559516907
-0.33083415031433105
-0.0023055258207023144
0.18839293718338013
-0.30638718605041504
-0.16709302365779877
0.29170164465904236
0.2800886631011963
-0.0036054570227861404
-0.015633409842848778
0.009299731813371181
0.10505452752113342
0.20252816379070282
-0.09456121176481247
-0.12522770464420319
-0.2946604788303375
0.03676336258649826
-0.20778678357601166
-0.20009773969650269
-0.28326159715652466
-0.01455378346145153
-0.09006649255752563
-0.03250575438141823
-0.026380740106105804
-0.09334006905555725
0.018620138987898827
-0.10698956996202469
-0.08742466568946838
0.018326452001929283
-0.0642906054854393
-0.0027242526412010193
-0.004227549768984318
-0.09633591026067734
-0.0722368061542511
-0.052554208785295486
-0.010967724025249481
-0.04273325949907303
0.002968810498714447
0.051545433700084686
-0.018561743199825287
-0.05978839844465256
0.011758849024772644
-0.01998591423034668
0.027019016444683075
-0.033874355256557465
-0.04120828956365585
0.023150622844696045
0.040444016456604004
-0.02868015319108963
-0.00788465142250061
0.015386678278446198
0.05124683678150177
-0.030543357133865356
-0.08759906142950058
-0.038972463458776474
-0.10181836038827896
-0.08121397346258163
-0.021623432636260986
-0.09039914608001709
-0.09186259657144547
-0.08175496757030487
-0.08266521245241165
-0.10891135782003403
-0.0744786262512207
0.03840875253081322
-0.050999753177165985
-0.06059763580560684
-0.10887502878904343
-0.036769215017557144
-0.09023417532444
-0.023019591346383095
-0.03754260018467903
-0.09530799090862274
-0.1056741327047348
-0.09550661593675613
0.01772855594754219
-0.10028151422739029
-0.052164964377880096
-0.015286567620933056
0.05032816156744957
-0.05663347989320755
-0.022083939984440804
0.025390366092324257
0.014249482192099094
-0.005569900386035442
-0.030293632298707962
-0.05677880346775055
-0.06685149669647217
-0.02680242247879505
-0.12185273319482803
-0.08039402216672897
-0.053101420402526855
-0.00740721495822072
-0.03629220649600029
-0.018709728494286537
-0.010402592830359936
-0.047504354268312454
-0.07612399011850357
-0.03544929251074791
-0.06284895539283752
-0.051686450839042664
-0.04647532477974892
-0.11368647962808609
-0.05002305656671524
-0.1110839992761612
-0.10793393850326538
-0.11352133750915527
-0.04289640858769417
-0.0145815284922719
-0.10386746376752853
-0.1158801019191742
-0.06308382749557495
-0.019561143592000008
-0.0941331684589386
-0.027654506266117096
-0.004436173941940069
-0.07647514343261719
-0.10718843340873718
-0.12205987423658371
0.0012400426203384995
-0.015753865242004395
-0.07808671146631241
-0.0992245301604271
0.10348072648048401
-0.04806254804134369
-0.08893807977437973
-0.030392641201615334
0.04625199735164642
-0.05562568083405495
-0.01778104342520237
-0.06249932572245598
-0.05869048461318016
-0.005874271970242262
-0.10027264803647995
-0.056718114763498306
-0.05370575934648514
-0.09958469122648239
-0.036790698766708374
-0.07895854115486145
-0.06306955218315125
-0.10867247730493546
-0.11976943165063858
-0.05165883153676987
0.0019940186757594347
-0.057580333203077316
-0.0014799232594668865
-0.02569969743490219
-0.11363056302070618
-0.08588113635778427
-0.10116015374660492
-0.07725389301776886
0.010283121839165688
-0.05316723883152008
-0.10751073062419891
-0.1002788320183754
-0.03070061281323433
-0.018866252154111862
-0.08353781700134277
-0.04921729117631912
-0.1089116707444191
-0.05198421701788902
-0.007936875335872173
-0.07427019625902176
-0.024043982848525047
-0.05475381761789322
-0.0916825532913208
-0.011207640171051025
-0.012233196757733822
-0.11455190926790237
-0.04839039593935013
-0.011973211541771889
-0.11877512186765671
-0.025128889828920364
-0.10081513226032257
-0.1413758546113968
-0.03613356873393059
-0.0763348862528801
0.008190437220036983
-0.09375069290399551
-0.057434096932411194
-0.12215416878461838
-0.01847967319190502
-0.094586081802845
-0.05829501152038574
-0.023666871711611748
-0.14515133202075958
-0.029034767299890518
-0.01226967666298151
-0.05409291386604309
-0.08210786432027817
-0.02537827380001545
-0.12883009016513824
-0.027259260416030884
-0.05492493882775307
0.023662647232413292
-0.06602198630571365
-0.037623081356287
-0.11173883825540543
-0.08022451400756836
-0.0980154424905777
-0.0015439303824678063
-0.09749200195074081
-0.05754571408033371
-0.07369782030582428
-0.026649562641978264
-0.025118565186858177
-0.031049083918333054
-0.005489721894264221
-0.0032653866801410913
-0.14252187311649323
0.017158275470137596
-0.1037343218922615
-0.021212240681052208
-0.06301318854093552
-0.054701484739780426
-0.06796502321958542
-0.06512236595153809
-0.09353356063365936
-0.004768249113112688
-0.06763800978660583
0.028625400736927986
-0.012012074701488018
-0.13665977120399475
-0.011402059346437454
-0.032765068113803864
-0.06871341913938522
-0.026194540783762932
-0.04447801411151886
-0.10693153738975525
-0.06843073666095734
0.00024043057055678219
-0.0718124732375145
-0.0754980593919754
-0.11009075492620468
-0.11760812997817993
-0.07633262872695923
-0.010496982373297215
-0.06501936912536621
-0.05218956246972084
-0.06662754714488983
-0.007116745226085186
0.007808119058609009
-0.03662043437361717
0.029799334704875946
-0.013572242110967636
-0.10314129292964935
-0.10891353338956833
-0.029979027807712555
-0.08497203141450882
-0.08675368130207062
-0.03204073756933212
-0.0315316878259182
-0.04378243535757065
-0.0639156699180603
-0.028964877128601074
0.00033495810930617154
-0.11297954618930817
0.0014945183647796512
-0.021299300715327263
-0.063664510846138
-0.08518780022859573
-0.08217743784189224
-0.042997803539037704
-0.007859098725020885
-0.05394142493605614
-0.005511221010237932
0.005855986382812262
-0.08489449322223663
0.005993131082504988
-0.04628796502947807
-0.07956117391586304
-0.0637858510017395
-0.10673370957374573
-0.054202716797590256
-0.08215311914682388
-0.0726846382021904
0.026843899860978127
-0.027414750307798386
0.024561341851949692
0.03622039780020714
-0.017041640356183052
-0.032453957945108414
-0.037136681377887726
-0.04656781256198883
-0.07468909025192261
0.0626966655254364
-0.019930001348257065
0.030667616054415703
0.010973114520311356
-0.027764443308115005
-0.003468200797215104
0.011168351396918297
0.019136108458042145
-0.007411539554595947
-0.016656234860420227
0.011901691555976868
0.050949521362781525
-0.010073088109493256
0.029032304883003235
0.04363636672496796
-0.02722959965467453
0.01760711520910263
0.016731947660446167
0.04930638521909714
-0.05485769361257553
-0.030659861862659454
-0.055312372744083405
-0.043372198939323425
0.050495121628046036
-0.06376291811466217
-0.018832489848136902
-0.027768034487962723
0.01809673011302948
-0.029577473178505898
-0.013426772318780422
-0.09211433678865433
-0.06756872683763504
-0.029648736119270325
-0.0542960949242115
-0.06779535859823227
-0.008176524192094803
-0.0009419884299859405
-0.001551199471578002
0.03420164808630943
-0.012669825926423073
0.0008878824301064014
-0.014422336593270302
-0.001458575832657516
-0.029447028413414955
0.016390737146139145
0.026870250701904297
0.03833713009953499
-0.06751921772956848
0.02773847058415413
0.03177854046225548
0.025500068441033363
-0.01401761919260025
0.008002136833965778
0.007413729093968868
0.029260586947202682
0.052523400634527206
-0.0725485235452652
0.010597968474030495
-0.016093824058771133
-0.0060395244508981705
-0.03657886013388634
-0.03377971425652504
0.01992010325193405
0.0021325242705643177
0.04275551438331604
0.039905838668346405
0.06872101128101349
-0.03422189876437187
0.000669279252178967
0.0005063835415057838
0.011595899239182472
-0.017232701182365417
0.0028483769856393337
-0.032258328050374985
0.003863988909870386
0.015455933287739754
-0.055760808289051056
0.025869259610772133
-0.008819034323096275
0.002667318796738982
-0.006797584239393473
-0.04175291582942009
0.049528006464242935
-0.03335043415427208
-0.05318348854780197
-0.06408984959125519
-0.0018422974972054362
-0.009441749192774296
-0.0486861988902092
0.0033233303111046553
0.00134335458278656
0.008362146094441414
-0.0765589252114296
-0.05803125724196434
-0.012833046726882458
-0.02200612612068653
-0.04221285507082939
-0.0403263196349144
-0.004627730697393417
0.021676000207662582
-0.08670507371425629
-0.04301655292510986
-0.042573150247335434
-0.01827666349709034
0.023641446605324745
-0.002568722004070878
-0.07349894940853119
-0.06882069259881973
-0.01559300348162651
-0.02986767701804638
-0.011296535842120647
-0.06965356320142746
-0.08274348825216293
-0.04159511625766754
-0.056208182126283646
-0.08425673842430115
0.013420773670077324
-0.060903966426849365
0.04748484492301941
0.03636288270354271
-0.02985101006925106
0.008020182140171528
-0.0540274940431118
0.027579903602600098
0.042429596185684204
0.020509148016572
-0.020702863112092018
0.027825040742754936
0.01824302412569523
0.012703493237495422
-0.057179760187864304
-0.09014139324426651
-0.06917409598827362
-0.039000436663627625
-0.04715687781572342
-0.13398273289203644
-0.07003713399171829
-0.05032601207494736
-0.11130732297897339
0.0015977203147485852
0.004783375654369593
-0.007513051386922598
-0.06196220591664314
-0.03158334642648697
-0.05850696936249733
-0.09384720772504807
-0.08356235176324844
-0.0995020866394043
-0.028795262798666954
-0.10014931112527847
-0.009630052372813225
-0.013189469464123249
0.011899829842150211
-0.07331191748380661
0.037593692541122437
-0.046459998935461044
-0.07856722176074982
0.0497070774435997
0.015735067427158356
-0.04545366019010544
0.05829519033432007
0.026733355596661568
-0.05183345079421997
-0.06965707987546921
-0.057748179882764816
-0.050025325268507004
-0.05421172454953194
-0.009065904654562473
0.02883131243288517
-0.042378686368465424
-0.057471901178359985
-0.01207378413528204
-0.027675935998558998
-0.06250528246164322
-0.03302794694900513
-0.10387145727872849
-0.0003248971188440919
0.005055068992078304
-0.017966367304325104
0.005873524118214846
-0.08241966366767883
0.013361893594264984
-0.010336777195334435
-0.04385408014059067
0.008778524585068226
-0.03316674008965492
0.03628477081656456
-0.050052396953105927
-0.015848573297262192
0.06055545061826706
-0.007174214348196983
-0.01271902211010456
-0.040304020047187805
0.0023068655282258987
0.025546368211507797
0.027569793164730072
0.011814869940280914
-0.021704591810703278
-0.04389725252985954
-0.04949911683797836
-0.02937096729874611
-0.05444938689470291
-0.021654697135090828
0.02517201565206051
-0.06327361613512039
-0.00884176418185234
0.02021775208413601
-0.000696568051353097
-0.03485208749771118
-0.015823794528841972
-0.046079035848379135
-0.04789024963974953
-0.03449750319123268
-0.05272660776972771
0.017885321751236916
-0.05498697981238365
-0.0854303240776062
-0.021216673776507378
-0.08835946768522263
0.010830819606781006
-0.0687912255525589
-0.06452920287847519
-0.012928456999361515
-0.05098651722073555
0.03457208722829819
-0.05387724190950394
0.02191721647977829
-0.033273786306381226
-0.021918172016739845
0.007284982595592737
-0.05431080609560013
0.03722415491938591
-0.009266694076359272
-0.04374304786324501
0.01740800403058529
-0.07614369690418243
-0.016156133264303207
-0.09978785365819931
-0.07268771529197693
0.010516232810914516
-0.054049301892519
0.0013168405275791883
-0.024045174941420555
-0.05614939332008362
-0.0302383191883564
-0.05908965319395065
-0.017457205802202225
0.016302628442645073
0.03154299408197403
0.11752548068761826
0.16853758692741394
-0.41682320833206177
-0.46969541907310486
0.27892401814460754
0.08129079639911652
-0.07507529109716415
-0.32115989923477173
-0.2679443955421448
-0.3024439215660095
-0.23535607755184174
-0.37029755115509033
-0.04538080841302872
-0.3309139013290405
-0.0377824604511261
0.026534873992204666
-0.005674935877323151
0.048850081861019135
-0.001171804964542389
0.0028280317783355713
0.03385508805513382
-0.04742938280105591
-0.013059020042419434
-0.013084948062896729
-0.030361078679561615
-0.011683558113873005
-0.014915160834789276
0.03232555836439133
-0.02333364635705948
0.005589848849922419
0.20869062840938568
0.04632971063256264
-0.09641235321760178
-0.1280551552772522
0.16447429358959198
-0.40389442443847656
0.0006198905757628381
0.17302680015563965
0.27170246839523315
0.13089798390865326
0.1761154681444168
0.19279523193836212
0.26613759994506836
-0.1703314334154129
-0.49843114614486694
-0.44855797290802
-0.12451125681400299
0.09656404703855515
0.06784003227949142
0.32879331707954407
-0.19723279774188995
0.20298221707344055
0.008895568549633026
0.1852962225675583
-0.07559932768344879
-0.14838428795337677
0.044284120202064514
0.2929146885871887
0.5159704089164734
-0.2905919849872589
-0.567531168460846
-0.12551741302013397
-0.13390003144741058
-0.10836880654096603
0.061346497386693954
0.24801971018314362
-0.000923330313526094
-0.544488787651062
0.14732816815376282
-0.06065528094768524
-0.3834396302700043
0.02736830711364746
0.29932457208633423
-0.04560989513993263
-0.08290625363588333
-0.3437160551548004
-0.4694477617740631
-0.7023785710334778
0.0037084107752889395
0.03420315310359001
0.2663443684577942
0.1362065076828003
-0.4001971483230591
-0.17653800547122955
-0.07028065621852875
-0.10638672858476639
0.16715189814567566
-0.03704652935266495
-0.0323733389377594
-0.19591942429542542
-0.013939318247139454
0.034135859459638596
0.12623436748981476
-0.08174718916416168
0.05785931274294853
-0.0024432053323835135
-0.07754381746053696
-0.09331532567739487
-0.13870419561862946
-0.07052568346261978
0.05194683372974396
0.028177410364151
-0.09975491464138031
-0.17160502076148987
-0.052143219858407974
0.2711796462535858
0.2884043753147125
0.22315923869609833
-0.03760664165019989
0.10126135498285294
0.008220231160521507
-0.05207613855600357
0.052465733140707016
-0.09988946467638016
-0.26787829399108887
-0.1975220888853073
0.28080514073371887
0.03164125978946686
-0.129858136177063
-0.047980599105358124
-0.03569485992193222
-0.1568496972322464
-0.016475379467010498
-0.18963181972503662
-0.14098069071769714
-0.455252081155777
-0.017594825476408005
-0.006586630828678608
0.04873014613986015
-0.08810785412788391
-0.24115563929080963
-0.2946140468120575
-0.031559497117996216
0.18937867879867554
0.1669079065322876
-0.002579344902187586
0.06725888699293137
-0.29548975825309753
-0.11460743099451065
0.07978969812393188
0.15375396609306335
0.027281828224658966
0.014520354568958282
0.003329878905788064
0.10587485134601593
0.016221681609749794
0.19044028222560883
-0.24452458322048187
-0.43742331862449646
0.4926155209541321
-0.3640747666358948
-0.0635153129696846
-0.09660712629556656
-0.04673807695508003
-0.12409599125385284
-0.3917842209339142
-0.47296154499053955
-0.7091591954231262
-0.20073172450065613
0.0685097873210907
-0.0024417233653366566
0.10292795300483704
-0.33439552783966064
0.1535993367433548
0.055202845484018326
-0.11224186420440674
0.033503975719213486
0.12180380523204803
0.046700406819581985
0.1602264791727066
0.33301427960395813
0.2944893538951874
0.06651175767183304
0.1705307960510254
-0.054943107068538666
-0.3489772081375122
-0.10000278055667877
0.006412619259208441
0.26972633600234985
-0.36528778076171875
-0.022945666685700417
0.15442052483558655
0.037557732313871384
-0.054880883544683456
-0.00570749631151557
0.14727234840393066
0.005193767603486776
0.21592450141906738
0.3356262743473053
0.006282411981374025
0.08119320869445801
0.11143099516630173
0.23135188221931458
0.04925944283604622
-0.2902550995349884
0.2193162590265274
-0.09475637972354889
-0.23131071031093597
0.27937301993370056
-0.0542682483792305
-0.03654634207487106
-0.3225545287132263
-0.1322138011455536
-0.6212126016616821
-0.8106078505516052
-0.46809619665145874
0.2500721514225006
-0.2756165564060211
-0.014684390276670456
0.061279308050870895
0.31429246068000793
0.024364003911614418
-0.22807402908802032
-0.0890427678823471
0.5279373526573181
0.04159088805317879
-0.09158533811569214
0.17722779512405396
0.05468710511922836
0.002017861232161522
0.4130754768848419
0.37593644857406616
0.08054772764444351
-0.03361189365386963
-0.07852036505937576
0.26801353693008423
-0.0978463739156723
0.050985243171453476
0.24950484931468964
0.1243559718132019
0.10492867976427078
0.06120404973626137
-0.07969588041305542
-0.37087953090667725
-0.5012798309326172
-0.039606381207704544
0.30254292488098145
-0.07940612733364105
0.037968091666698456
-0.04381158947944641
0.19995638728141785
-0.019201533868908882
0.0962524488568306
-0.11414074152708054
0.1482740342617035
0.18972714245319366
-0.04467494413256645
-0.24962584674358368
-0.06418626755475998
-0.09695014357566833
-0.13769729435443878
-0.09085666388273239
-0.25800907611846924
-0.5627077221870422
-0.030557097867131233
0.032898444682359695
0.014968794770538807
-0.0168862696737051
-0.06234719976782799
0.03635185584425926
-0.050917476415634155
-0.046576570719480515
0.029747309163212776
-0.023520495742559433
-0.08940500020980835
-0.05637543648481369
0.019148144870996475
-0.030852869153022766
-0.03760341927409172
-0.061504144221544266
0.0592036172747612
0.04581154137849808
-0.011073984205722809
0.026326395571231842
0.0029297620058059692
0.016053318977355957
0.014387242496013641
0.03522622585296631
-0.0040751248598098755
-0.0411076620221138
0.01102001965045929
0.03949422389268875
0.03831740468740463
0.014373280107975006
-0.03779061138629913
-0.031016461551189423
-0.00038693801616318524
-0.09452880173921585
0.006991609465330839
-0.0035690744407474995
-0.07649056613445282
-0.06282343715429306
-0.00040418424759991467
-0.015450132079422474
0.05678935348987579
-0.09220873564481735
0.007756390143185854
-0.04049267619848251
-0.07052787393331528
-0.009218825958669186
0.0014787210384383798
-0.07443533837795258
0.002879722975194454
-0.06473767012357712
-0.026962777599692345
-0.07561288774013519
0.00023524569405708462
-0.04218589514493942
-0.04471927136182785
-0.053432296961545944
-0.07541443407535553
-0.028288807719945908
-0.019263269379734993
-0.0712791308760643
-0.012426917441189289
-0.053454600274562836
-0.06285882741212845
-0.020347848534584045
-0.06542891263961792
-0.0679207518696785
0.017018897458910942
-0.0754828006029129
-0.000735921785235405
-0.09120482206344604
0.06519990414381027
0.026195935904979706
-0.01114426739513874
-0.06741458922624588
0.006957370322197676
-0.015542548149824142
0.016338396817445755
-0.09078839421272278
-0.0594010092318058
-0.10379564017057419
0.03744592145085335
-0.05204278975725174
-0.0777403861284256
-0.04269241914153099
-0.003954533953219652
-0.07732042670249939
-0.10484648495912552
-0.07355008274316788
-0.08656633645296097
-0.030409591272473335
-0.05834585055708885
-0.05828709527850151
0.026719635352492332
-0.06976069509983063
0.03188169375061989
0.04771922901272774
-0.02732784114778042
0.007319196593016386
-0.051739271730184555
-0.053165994584560394
-0.0804574191570282
-0.015102372504770756
-0.05154580995440483
-0.04733651503920555
-0.008713487535715103
-0.08650629967451096
-0.01059475727379322
-0.0683603584766388
-0.05959692597389221
-0.03643139824271202
0.0030762674286961555
-0.08415110409259796
-0.08026200532913208
-0.07318031042814255
-0.0024931123480200768
-0.060335684567689896
-0.012972287833690643
0.07111071795225143
0.019486717879772186
-0.03523574024438858
0.019955821335315704
-0.007704670540988445
0.03069625422358513
-0.09550623595714569
0.02298201434314251
0.016954917460680008
-0.07467139512300491
-0.08580107986927032
-0.009384478442370892
-0.036308351904153824
0.0004977177595719695
-0.05442475154995918
-0.06547509878873825
-0.06310240179300308
-0.007228917442262173
-0.08787081390619278
-0.025168225169181824
0.0017039318336173892
0.007220675237476826
0.022041697055101395
-0.03533467277884483
-0.08552728593349457
-0.09304579347372055
-0.02070660889148712
-0.03893106430768967
0.0036400468088686466
-0.02958725392818451
0.0002486736630089581
0.0794583410024643
-0.08480190485715866
-0.04321111738681793
0.002473223488777876
0.023162705823779106
0.02366209775209427
0.004203798249363899
0.013850666582584381
-0.0680447518825531
-0.024506013840436935
-0.0319272056221962
-0.05984656885266304
-0.01018460001796484
-0.10517285019159317
-0.04947255551815033
-0.06544844806194305
-0.0913977101445198
0.02657489664852619
-0.045100972056388855
-0.03398570045828819
-0.07274235039949417
-0.10094542801380157
0.008314568549394608
-0.022075973451137543
0.019937019795179367
-0.08317689597606659
-0.053926464170217514
-0.0017160687129944563
-0.09780450165271759
-0.06695524603128433
0.005798361264169216
-0.05098991096019745
-0.01024879701435566
-0.0048809051513671875
-0.05201413109898567
-0.034639257937669754
-0.07195858657360077
-0.05322527885437012
-0.08169477432966232
-0.09131661802530289
-0.04278997331857681
-0.06430275738239288
0.004830493126064539
-0.019409580156207085
-0.06506276875734329
-0.10284868627786636
0.02551068179309368
-0.07460964471101761
-0.06490687280893326
-0.054862432181835175
-0.05754847824573517
0.0016777736600488424
-0.10677498579025269
-0.04426737129688263
0.016326894983649254
-0.10797752439975739
-0.10254890471696854
0.002110918052494526
-0.04788196086883545
-0.0005126305040903389
-0.07080338150262833
0.013062283396720886
-0.03177213668823242
-0.04339266195893288
0.015042684972286224
-0.05944829434156418
-0.057855140417814255
-0.07487712800502777
0.03861285001039505
0.03549237549304962
-0.058407027274370193
0.0066634914837777615
-0.08279453217983246
0.06904172152280807
-0.007259105332195759
0.016764093190431595
-0.003711564466357231
-0.037757180631160736
-0.014869106002151966
-0.008120892569422722
-0.08816815912723541
-0.004042309243232012
-0.01112794317305088
-0.05551566556096077
-0.059173308312892914
-0.039585039019584656
-0.04010054096579552
0.03935050219297409
0.020999431610107422
-0.0344589464366436
-0.10599730908870697
-0.01851329579949379
-0.06862238794565201
-0.075004942715168
-0.007505635730922222
0.0002781309012789279
-0.02158392407000065
-0.07896294444799423
-0.0035855157766491175
-0.013248886913061142
-0.017618654295802116
-0.04047580435872078
-0.047521624714136124
-0.03649134933948517
-0.0008181161247193813
-0.09944385290145874
-0.09327562153339386
-0.08517023175954819
-0.4235004186630249
0.05250728502869606
0.2444738894701004
-0.14039483666419983
-0.1828998476266861
0.26230496168136597
0.33074653148651123
0.05278341472148895
0.36835846304893494
0.14331942796707153
-0.0882398709654808
-0.2364816814661026
-0.461473673582077
0.049222446978092194
-0.112877257168293
-0.08374501019716263
-0.025019824504852295
0.03081756830215454
-0.04682204872369766
-0.019436076283454895
0.019518941640853882
0.042038366198539734
0.005412794649600983
0.010709010064601898
0.04640818387269974
-0.0012516006827354431
0.012493632733821869
-0.045947108417749405
0.05342072993516922
-0.03989315778017044
-0.022819258272647858
-0.04094447195529938
0.6055014729499817
0.1075359359383583
-0.24062252044677734
0.03202452138066292
0.0275441762059927
-0.14609430730342865
0.22864657640457153
-0.09591075778007507
-0.10001985728740692
-0.14522896707057953
-0.012587107717990875
0.11738913506269455
0.31626957654953003
-0.22164636850357056
-0.06902557611465454
-0.19071154296398163
0.07821786403656006
0.4772733449935913
0.5019187331199646
0.5759471654891968
0.1174958199262619
0.27261483669281006
0.03691697120666504
0.5369542837142944
-0.0026990531478077173
0.3962683081626892
0.44435423612594604
0.4097753167152405
0.19201089441776276
0.16932642459869385
0.08494213968515396
-0.3948143422603607
0.07711486518383026
0.03155350312590599
-0.04553459584712982
0.14555351436138153
-0.005887679755687714
-0.07374516129493713
-0.01962418667972088
0.21148782968521118
-0.13897763192653656
-0.19191974401474
0.1520325392484665
0.019159439951181412
0.06811001896858215
-0.20049627125263214
-0.11974141746759415
-0.17431239783763885
0.8416175842285156
0.2825072705745697
0.23233212530612946
0.1377882957458496
0.2192808985710144
-0.0035558799281716347
0.0987778753042221
-0.10458216071128845
0.05751141160726547
-0.02509201318025589
0.15863439440727234
0.21270141005516052
0.08348088711500168
0.017330775037407875
0.2859392762184143
0.29003167152404785
-0.23873980343341827
0.14421451091766357
0.41588306427001953
0.2459644228219986
-0.37715470790863037
0.22155383229255676
-0.00762091064825654
0.038535021245479584
0.09188202023506165
-0.14032569527626038
-0.030064361169934273
0.19900859892368317
0.07581835240125656
-0.2784939408302307
-0.0029691574163734913
0.10015015304088593
0.03439801558852196
0.13802948594093323
0.1330411434173584
-0.15313686430454254
-0.11642062664031982
0.006604921072721481
0.09878361225128174
-0.08865859359502792
-0.19361810386180878
-0.03848195821046829
0.28949132561683655
0.3586752712726593
-0.20207272469997406
0.028828375041484833
-0.010928790085017681
0.009092519991099834
0.22859877347946167
0.26370275020599365
0.29948484897613525
-0.21751059591770172
0.4233138859272003
-0.026788834482431412
-0.0796143189072609
-0.11322449147701263
-0.11327017098665237
-0.10036975890398026
0.12001676857471466
0.2666940987110138
-0.25148507952690125
0.05129120871424675
0.13145515322685242
-0.10678566247224808
0.4364461600780487
0.12406622618436813
-0.17714154720306396
-0.14888952672481537
0.5371895432472229
-0.049454253166913986
-0.28155717253685
0.06423605233430862
-0.1422334462404251
0.050588104873895645
-0.13654464483261108
-0.12822897732257843
0.314264178276062
0.23194895684719086
-0.014946315437555313
-0.28463292121887207
-0.6540008783340454
-0.2769499719142914
0.22100307047367096
0.13648425042629242
-0.386448472738266
0.2939275801181793
0.06463256478309631
0.3701731264591217
0.07243659347295761
0.03715779632329941
-0.17059707641601562
-0.12545466423034668
-0.17758551239967346
-0.2533344626426697
0.05648346617817879
-0.14823803305625916
-0.18470832705497742
-0.38497114181518555
-0.04516986757516861
-0.08274918794631958
-0.04162445291876793
-0.35395389795303345
0.13358651101589203
0.08827604353427887
0.05830749496817589
-0.020117556676268578
-0.09124407172203064
-0.20288585126399994
-0.08645572513341904
0.19600877165794373
-0.01955447532236576
-0.17038105428218842
0.4114449918270111
0.3404116630554199
0.10411716252565384
-0.3560824990272522
-0.37262558937072754
-0.10967177897691727
-0.22126726806163788
0.11075392365455627
-0.21752645075321198
-0.3688652217388153
0.034603871405124664
-0.26122719049453735
-0.02612084150314331
-0.08795104175806046
-0.20281419157981873
-0.3237529695034027
-0.3042089641094208
-0.35575124621391296
0.1914326250553131
-0.01728162355720997
-0.10980700701475143
-0.3026169538497925
0.08323457837104797
-0.07897592335939407
-0.035961493849754333
0.01711331121623516
-0.03396650031208992
0.060033224523067474
0.3474162817001343
0.011972608976066113
-0.013298443518579006
0.047761619091033936
-0.5701281428337097
-0.7177138328552246
-0.1816166788339615
-0.15635371208190918
-0.21515357494354248
-0.5015069246292114
0.3331246078014374
-0.3252063989639282
-0.03787119686603546
0.2077677696943283
0.10278775542974472
-0.5612242221832275
0.013463185168802738
-0.06569278240203857
0.14788594841957092
-0.24442888796329498
0.3519953787326813
0.025702670216560364
-0.17147399485111237
-0.3008120059967041
0.03712092339992523
-0.2533632516860962
-0.07987953722476959
-0.24560312926769257
0.0034694401547312737
-0.07873101532459259
-0.09765522181987762
0.17587125301361084
0.08710936456918716
0.21158358454704285
-0.2765357494354248
-0.149351567029953
0.024903535842895508
0.027264846488833427
0.0078858882188797
0.03490552678704262
0.007077176123857498
-0.05973181128501892
-0.06291842460632324
-0.02262946218252182
0.028985431417822838
0.0007419798639602959
-0.06560516357421875
0.0029315054416656494
-0.03629795089364052
-0.031932491809129715
-0.0680794045329094
-0.004034740384668112
-0.010815039277076721
-0.04945758730173111
-0.037396520376205444
-0.01508329063653946
0.059628672897815704
-0.042404577136039734
-0.04477936774492264
-0.03876802325248718
-0.04175674170255661
0.021824181079864502
0.016063831746578217
0.06249041110277176
0.049840301275253296
0.004853889346122742
-0.024357572197914124
0.0005157515406608582
-0.045569345355033875
0.02406184934079647
-0.03359861299395561
0.037708938121795654
-0.00811492744833231
0.04503079131245613
-0.052844732999801636
-0.058110471814870834
0.018501853570342064
-0.05294990539550781
-0.06622828543186188
0.02816501073539257
0.000647169363219291
-0.031080257147550583
0.04552324116230011
-0.04813619703054428
0.02378750592470169
-0.06499364227056503
-0.0625571459531784
0.04778950288891792
-0.05825893580913544
0.03268209844827652
-0.02201087772846222
0.05012611299753189
-0.06025318056344986
-0.005594939459115267
-0.04555802419781685
0.01838115230202675
0.022874753922224045
0.012861471623182297
0.023228514939546585
0.03784904628992081
-0.06679180264472961
-0.04262673854827881
-0.0712268128991127
-0.01119152456521988
-0.07431670278310776
-0.013376626186072826
0.01134716160595417
-0.06494870036840439
-0.06149936467409134
-0.030941948294639587
-0.018334567546844482
0.046230219304561615
0.026448756456375122
-0.052023448050022125
-0.038653675466775894
-0.061218228191137314
0.04417243227362633
0.036272093653678894
0.042457640171051025
-0.01575988158583641
-0.008176836185157299
0.03200920671224594
-0.05164121091365814
-0.0554020069539547
-0.0463862419128418
-0.07325351238250732
0.02956591174006462
-0.0027286235708743334
0.024809466674923897
0.025653842836618423
-0.0034529308322817087
-0.006289915647357702
0.007578730583190918
0.008361618965864182
0.0044273012317717075
0.0006770770996809006
-0.01956365443766117
-0.060457874089479446
0.0351252481341362
-0.06968893855810165
-0.03636228293180466
-0.00738768745213747
-0.04637064039707184
0.0010726931504905224
-0.0447705052793026
0.030236972495913506
-0.036965079605579376
-0.01775035634636879
-0.06461640447378159
-0.05991731211543083
-0.04133103787899017
-0.029479457065463066
0.03560640662908554
-0.010639414191246033
0.04473003000020981
0.02483433112502098
0.018961666151881218
0.016263732686638832
-0.010674089193344116
-0.024613840505480766
0.023805692791938782
-0.01877402514219284
-0.033470697700977325
-0.015749812126159668
-0.035844914615154266
-0.05181056633591652
-0.022860422730445862
-0.008200476877391338
0.04797087237238884
0.03917593136429787
0.013473983854055405
-0.0011390241561457515
-0.054675087332725525
-0.022815898060798645
0.04558110609650612
-0.046748049557209015
0.02123129554092884
-0.02308533899486065
-0.013515868224203587
-0.069776251912117
-0.026595698669552803
0.035211946815252304
-0.058278463780879974
0.03999491035938263
0.0019553254824131727
0.03983592987060547
-0.02803347446024418
-0.04266319051384926
0.027244361117482185
-0.006080342456698418
-0.06218532845377922
0.004068830516189337
-0.03368740901350975
0.030509598553180695
-0.03450153023004532
-0.0698246881365776
-0.017452813684940338
-0.005006722174584866
0.021464170888066292
0.0452452227473259
-0.07125415652990341
-0.023924095556139946
-0.06283819675445557
-0.04661225900053978
-0.02287130057811737
0.004787035286426544
0.04991132766008377
0.01910577341914177
-0.07151441276073456
0.007321610115468502
-0.005324643570929766
-0.03541099280118942
-0.04823983460664749
0.01154904905706644
-0.05914671719074249
-0.020290998741984367
-0.07159982621669769
0.011790412478148937
-0.047727201133966446
-0.03598237410187721
-0.05386405065655708
-0.033917929977178574
-0.013082132674753666
-0.009231317788362503
-0.06724848598241806
-0.038519665598869324
-0.07354778051376343
-0.0007995818159542978
-0.07061084359884262
0.04912906140089035
0.032472796738147736
-0.04872555285692215
-0.04963698983192444
0.03050319291651249
0.023935971781611443
-0.06468211859464645
0.017335718497633934
0.013065347447991371
-0.017416957765817642
-0.04415425285696983
0.04603971913456917
-0.021895412355661392
0.007000891957432032
0.03651776909828186
-0.07126634567975998
0.0034552246797829866
-0.06351102143526077
0.03125149756669998
0.04994357004761696
0.0015099655138328671
-0.06227828934788704
0.04707581177353859
-0.07098008692264557
0.011881797574460506
0.04015328735113144
-0.052287355065345764
-0.07095298916101456
-0.04869585856795311
0.02447107434272766
-0.01050388440489769
0.006116374395787716
-0.05038171634078026
0.02894696593284607
-0.02169671654701233
-0.0703219622373581
-0.028772562742233276
-0.019516803324222565
-0.04469747096300125
0.019744977355003357
-0.037256211042404175
0.04273106902837753
-0.006308714859187603
-0.015891818329691887
-0.0064054615795612335
-0.051016755402088165
0.022837841883301735
0.04342086240649223
-0.044707078486680984
-0.03377935290336609
-0.05846066772937775
-0.055751264095306396
-0.0024994779378175735
-0.0033896327950060368
-0.013244626112282276
-0.038395047187805176
-0.04335087910294533
-0.06956333667039871
0.020814726129174232
-0.0368485264480114
0.02016392908990383
-0.046550165861845016
-0.03608470410108566
-0.18584655225276947
0.043267492204904556
-0.20251493155956268
0.16848939657211304
0.10197103768587112
0.19493381679058075
-0.5256816744804382
-0.15468962490558624
-0.26564666628837585
-0.07224627584218979
0.007137688808143139
0.19005750119686127
-0.21411903202533722
-0.26566556096076965
0.40075939893722534
0.020015764981508255
-0.0034327432513237
0.05184289813041687
0.006376802921295166
-0.048303164541721344
-0.0562359094619751
0.04718770086765289
0.05708836764097214
0.04620792716741562
0.03296559303998947
0.01049947738647461
0.022239819169044495
-0.019436867907643318
-0.059095606207847595
-0.061118826270103455
-0.05554738640785217
0.07939857989549637
0.039170149713754654
0.04567071795463562
0.14604248106479645
0.0868467390537262
0.17062155902385712
0.32110509276390076
0.012842051684856415
0.285378634929657
-0.1232343465089798
-0.1691458821296692
-0.12477196007966995
-0.13454338908195496
-0.0584927462041378
-0.23607854545116425
0.02567077986896038
0.019508054479956627
-0.13770319521427155
0.15528373420238495
-0.2089642733335495
0.07371659576892853
0.030851023271679878
0.15921001136302948
0.09135030955076218
0.15834391117095947
0.04682760313153267
-0.10000218451023102
0.003423096612095833
-0.27410659193992615
-0.18574808537960052
-0.27085080742836
0.2033151090145111
-0.507331907749176
-0.052173200994729996
0.10272291302680969
-0.054263994097709656
-0.0711311548948288
-0.24317722022533417
0.1527579128742218
-0.028721733018755913
0.10528985410928726
0.02890714257955551
0.11230878531932831
0.01695350743830204
-0.03704572468996048
0.295688658952713
-0.07287699729204178
0.08036831021308899
-0.09345001727342606
-0.16026893258094788
-0.02472766675055027
-0.21276959776878357
0.05233020335435867
-0.4576060175895691
-0.3471687436103821
-0.034913741052150726
-0.4043337404727936
-0.009183499962091446
0.22742964327335358
-0.1935584396123886
0.014425648376345634
-0.31638234853744507
-0.0447872169315815
0.017214030027389526
-0.21512557566165924
0.016316693276166916
-0.06799440085887909
0.07935335487127304
-0.20625631511211395
-0.03661811351776123
0.006849413271993399
0.2922920286655426
0.17324015498161316
0.03392837569117546
0.09303358942270279
-0.2558920085430145
0.0614638477563858
-0.18460580706596375
-0.07678772509098053
-0.1590922325849533
0.07014703005552292
0.26017457246780396
0.13637636601924896
-0.08805996924638748
-0.09889993816614151
-0.10327992588281631
-0.13295698165893555
0.14652185142040253
0.04674935340881348
0.1827564239501953
0.08216248452663422
0.10161963105201721
-0.056105826050043106
-0.15219050645828247
0.06297089904546738
-0.04829879477620125
-0.33730432391166687
-0.15405113995075226
-0.18104644119739532
-0.10660480707883835
-0.18504852056503296
-0.06677408516407013
0.16650831699371338
0.10944849252700806
-0.13186034560203552
-0.0021454577799886465
0.16732992231845856
0.094329833984375
-0.13102266192436218
-0.41335105895996094
-0.35409820079803467
-0.10219293087720871
-0.3340052664279938
-0.07373802363872528
-0.13943615555763245
0.05423055961728096
0.3076884150505066
0.24661387503147125
-0.22233326733112335
-0.1268928050994873
0.05558718740940094
-0.23156219720840454
-0.5634151101112366
-0.00022854513372294605
0.021633202210068703
0.017539942637085915
-0.02190258912742138
-0.42277249693870544
-0.07108967751264572
0.08294953405857086
0.10103311389684677
-0.029837679117918015
-0.30452269315719604
0.16069291532039642
0.19643154740333557
0.15468730032444
-0.010950630530714989
0.2541120946407318
-0.1499137282371521
-0.16933734714984894
-0.26890242099761963
0.04578438773751259
-0.4880194365978241
-0.40868768095970154
0.26195424795150757
-0.5314237475395203
-0.18232287466526031
0.3851117789745331
0.18440499901771545
-0.0793284997344017
0.058858856558799744
0.1513410061597824
-0.08237332850694656
-0.29224568605422974
0.36596423387527466
-0.3132505416870117
-0.08371631801128387
-0.0644044578075409
-0.01511208526790142
-0.05007154867053032
0.33523571491241455
-0.11196787655353546
0.0745689645409584
-0.27768656611442566
0.0759725570678711
0.29005002975463867
0.0992496907711029
-0.07323069125413895
-0.11535222083330154
0.1724155843257904
-0.05809498205780983
0.023984791710972786
-0.1543462574481964
0.3938615918159485
0.05599754676222801
-0.1665138304233551
-0.07747093588113785
-0.22792938351631165
-0.1269473433494568
0.07705749571323395
0.3432178199291229
0.03951024264097214
0.039043087512254715
0.29748469591140747
0.15572749078273773
0.1420610249042511
0.05491236224770546
0.16720421612262726
-0.24558256566524506
0.16999784111976624
0.03358934074640274
-0.04312032461166382
-0.3846195638179779
0.04757295176386833
0.4789504110813141
-0.09412870556116104
0.2384592741727829
0.15738365054130554
0.21389271318912506
-0.044541191309690475
-0.14660301804542542
-0.22377726435661316
-0.05881126970052719
-0.06920239329338074
-0.13312587141990662
-0.22904470562934875
0.217535138130188
0.09337800741195679
-0.15824663639068604
-0.14918072521686554
0.37849161028862
0.21457616984844208
0.2871077358722687
0.5634815692901611
0.2946736514568329
-0.05471547320485115
0.034146588295698166
0.281453013420105
0.04355092719197273
-0.24311484396457672
-0.26572996377944946
-0.15949508547782898
-0.08361440896987915
-0.07147517800331116
-0.014776450581848621
-0.06919064372777939
-0.06902869790792465
0.042254116386175156
-0.0052798110991716385
0.005200177431106567
-0.07403504103422165
0.029012585058808327
0.0028067349921911955
0.03506068140268326
4.242207432980649e-05
0.005779720377177
0.009751234203577042
-0.059883713722229004
0.040723901242017746
0.03695137798786163
-0.010950025171041489
0.03998243063688278
0.016864165663719177
